{"learner":{"attributes":{"scikit_learn":"{\"_estimator_type\": \"classifier\"}"},"feature_names":["volatility","momentum","sector_strength","return_1d"],"feature_types":["float","float","float","float"],"gradient_booster":{"model":{"gbtree_model_param":{"num_parallel_tree":"1","num_trees":"100"},"iteration_indptr":[0,1,2,3,4,5,6,7,8,9,10,11,12,13,14,15,16,17,18,19,20,21,22,23,24,25,26,27,28,29,30,31,32,33,34,35,36,37,38,39,40,41,42,43,44,45,46,47,48,49,50,51,52,53,54,55,56,57,58,59,60,61,62,63,64,65,66,67,68,69,70,71,72,73,74,75,76,77,78,79,80,81,82,83,84,85,86,87,88,89,90,91,92,93,94,95,96,97,98,99,100],"tree_info":[0,0,0,0,0,0,0,0,0,0,0,0,0,0,0,0,0,0,0,0,0,0,0,0,0,0,0,0,0,0,0,0,0,0,0,0,0,0,0,0,0,0,0,0,0,0,0,0,0,0,0,0,0,0,0,0,0,0,0,0,0,0,0,0,0,0,0,0,0,0,0,0,0,0,0,0,0,0,0,0,0,0,0,0,0,0,0,0,0,0,0,0,0,0,0,0,0,0,0,0],"trees":[{"base_weights":[-1.0268916E-7,-8.9351796E-2,3.484716E-1,-4.9704146E-1,4.9001426E-3,-2.2847506E-1,3.7201053E-1,-9.204153E-1,-9.108663E-2,7.158144E-1,-5.4005945E-1,1.9266037E-2,-1.1921399E0,7.3480654E-1,-1.9430615E-1,-4.970415E-1,9.514562E-1,-1.1067195E0,2.2105262E-1,-1.15596354E-1,-4.100592E-1,2.8899083E-1,6.942147E-2,-8.98396E-2,2.4620688E-1,-3.853211E-1,1.5412843E-1,1.745721E-1,3.7229913E-1,1.9266037E-2,-4.4611403E-1],"categories":[],"categories_nodes":[],"categories_segments":[],"categories_sizes":[],"default_left":[0,0,0,0,0,0,0,0,0,0,0,0,0,0,0,0,0,0,0,0,0,0,0,0,0,0,0,0,0,0,0],"id":0,"left_children":[1,3,-1,-1,5,7,9,11,13,15,17,-1,19,21,23,25,27,29,-1,-1,-1,-1,-1,-1,-1,-1,-1,-1,-1,-1,-1],"loss_changes":[6.7907286E0,8.983804E0,0E0,0E0,5.0803404E0,3.3637083E0,7.6115656E0,1.6545558E0,2.8167903E0,5.378166E0,5.7918596E0,0E0,1.3214159E-1,2.0197654E-1,3.3062634E0,3.40481E0,8.522787E-1,2.3949084E0,0E0,0E0,0E0,0E0,0E0,0E0,0E0,0E0,0E0,0E0,0E0,0E0,0E0],"parents":[2147483647,0,0,1,1,4,4,5,5,6,6,7,7,8,8,9,9,10,10,12,12,13,13,14,14,15,15,16,16,17,17],"right_children":[2,4,-1,-1,6,8,10,12,14,16,18,-1,20,22,24,26,28,30,-1,-1,-1,-1,-1,-1,-1,-1,-1,-1,-1,-1,-1],"split_conditions":[1.0515493E0,-3.024432E-2,3.484716E-1,-4.9704146E-1,9.900448E-1,1.0106485E0,5.9281344E0,9.9046445E-1,1.015284E0,-1.4045746E-2,2.1999255E-2,1.9266037E-2,2.573904E0,9.808507E-1,1.6022831E1,1.0103861E0,2.3487944E-3,9.464643E-1,2.2105262E-1,-1.15596354E-1,-4.100592E-1,2.8899083E-1,6.942147E-2,-8.98396E-2,2.4620688E-1,-3.853211E-1,1.5412843E-1,1.745721E-1,3.7229913E-1,1.9266037E-2,-4.4611403E-1],"split_indices":[2,3,0,0,2,1,0,1,1,3,3,0,0,2,0,2,3,1,0,0,0,0,0,0,0,0,0,0,0,0,0],"split_type":[0,0,0,0,0,0,0,0,0,0,0,0,0,0,0,0,0,0,0,0,0,0,0,0,0,0,0,0,0,0,0],"sum_hessian":[6.3428574E1,5.9755104E1,3.6734695E0,2.4489796E0,5.730612E1,3.5265305E1,2.2040817E1,4.897959E0,3.0367348E1,1.6163265E1,5.877551E0,1.2244898E0,3.6734695E0,2.6938777E0,2.767347E1,2.4489796E0,1.3714286E1,4.163265E0,1.7142857E0,1.2244898E0,2.4489796E0,1.2244898E0,1.4693878E0,2.5714287E1,1.9591837E0,1.2244898E0,1.2244898E0,7.346939E0,6.367347E0,1.2244898E0,2.9387755E0],"tree_param":{"num_deleted":"0","num_feature":"4","num_nodes":"31","size_leaf_vector":"1"}},{"base_weights":[3.554418E-3,5.711275E-2,-4.0291774E-1,-5.3681973E-3,3.4502268E-1,-7.370908E-2,2.767651E-1,-3.8687804E-1,5.781116E-3,1.17136456E-1,-4.3670005E-1,6.496199E-2,-1.2726839E-1,-5.815364E-3,-2.8415918E-1],"categories":[],"categories_nodes":[],"categories_segments":[],"categories_sizes":[],"default_left":[0,0,0,0,0,0,0,0,0,0,0,0,0,0,0],"id":1,"left_children":[1,3,-1,5,-1,7,-1,-1,9,11,13,-1,-1,-1,-1],"loss_changes":[4.657854E0,4.2434335E0,0E0,3.8531435E0,0E0,5.470182E0,0E0,0E0,2.7142112E0,2.4579906E0,2.3417556E0,0E0,0E0,0E0,0E0],"parents":[2147483647,0,0,1,1,3,3,5,5,8,8,9,9,10,10],"right_children":[2,4,-1,6,-1,8,-1,-1,10,12,14,-1,-1,-1,-1],"split_conditions":[6.9399476E-2,4.0594406E-2,-4.0291774E-1,1.0515493E0,3.4502268E-1,-3.024432E-2,2.767651E-1,-3.8687804E-1,1.0511038E0,6.8987727E0,9.636225E-1,6.496199E-2,-1.2726839E-1,-5.815364E-3,-2.8415918E-1],"split_indices":[3,3,0,2,0,3,0,0,1,0,2,0,0,0,0],"split_type":[0,0,0,0,0,0,0,0,0,0,0,0,0,0,0],"sum_hessian":[6.251909E1,6.1048615E1,1.4704748E0,5.8688675E1,2.3599424E0,5.5520195E1,3.168478E0,2.472804E0,5.304739E1,4.296903E1,1.0078363E1,3.6810093E1,6.158935E0,6.116383E0,3.9619806E0],"tree_param":{"num_deleted":"0","num_feature":"4","num_nodes":"15","size_leaf_vector":"1"}},{"base_weights":[-4.621939E-3,3.9908946E-2,-3.2987225E-1,-7.641667E-2,4.8848507E-1,-1.3920695E-1,7.446864E-1,-4.2077768E-1,1.0101104E0,-3.2386127E-1,-6.624457E-2,2.608593E-1,6.410086E-2,1.432661E-1,-3.0470482E-1,5.042532E-1,3.464809E-1,5.715746E-1,-1.342589E-1,-1.02179326E-1,1.6039541E-1,2.0059532E-1,2.6544567E-2,3.895394E-2,2.7184808E-1,-1.819519E-1,-6.8612327E-4],"categories":[],"categories_nodes":[],"categories_segments":[],"categories_sizes":[],"default_left":[0,0,0,0,0,0,0,0,0,0,0,0,0,0,0,0,0,0,0,0,0,0,0,0,0,0,0],"id":2,"left_children":[1,3,-1,5,7,9,11,13,15,-1,17,-1,-1,19,-1,21,-1,23,25,-1,-1,-1,-1,-1,-1,-1,-1],"loss_changes":[3.0874596E0,3.2175531E0,0E0,2.6434157E0,6.441657E0,3.1259181E0,5.663967E-2,1.9341282E0,2.972126E-2,0E0,1.9990958E0,0E0,0E0,8.6623216E-1,0E0,1.892677E-1,0E0,5.415487E-1,2.5447228E0,0E0,0E0,0E0,0E0,0E0,0E0,0E0,0E0],"parents":[2147483647,0,0,1,1,3,3,4,4,5,5,6,6,7,7,8,8,10,10,13,13,15,15,17,17,18,18],"right_children":[2,4,-1,6,8,10,12,14,16,-1,18,-1,-1,20,-1,22,-1,24,26,-1,-1,-1,-1,-1,-1,-1,-1],"split_conditions":[6.9399476E-2,1.6460681E-2,-3.2987225E-1,1.0515493E0,9.6487427E-1,-3.024432E-2,-2.6758222E-2,9.6103454E-1,2.3445394E-2,-3.2386127E-1,1.3058618E0,2.608593E-1,6.410086E-2,2.5297608E-2,-3.0470482E-1,2.0636806E-2,3.464809E-1,1.0749186E0,2.0044875E0,-1.02179326E-1,1.6039541E-1,2.0059532E-1,2.6544567E-2,3.895394E-2,2.7184808E-1,-1.819519E-1,-6.8612327E-4],"split_indices":[3,3,0,2,2,3,3,2,3,0,0,0,0,3,0,3,0,0,0,0,0,0,0,0,0,0,0],"split_type":[0,0,0,0,0,0,0,0,0,0,0,0,0,0,0,0,0,0,0,0,0,0,0,0,0,0,0],"sum_hessian":[6.1420574E1,5.994616E1,1.4744135E0,4.826074E1,1.1685421E1,4.5603848E1,2.6568913E0,4.330359E0,7.355062E0,2.290344E0,4.3313503E1,1.6350101E0,1.0218813E0,2.6125321E0,1.7178266E0,2.6345894E0,4.7204723E0,3.4602752E0,3.9853226E1,1.2262727E0,1.3862596E0,1.4521749E0,1.1824144E0,2.0896065E0,1.3706685E0,7.919259E0,3.193397E1],"tree_param":{"num_deleted":"0","num_feature":"4","num_nodes":"27","size_leaf_vector":"1"}},{"base_weights":[5.1400485E-4,3.801601E-2,-2.814228E-1,-4.037695E-3,2.6263723E-1,-4.893405E-2,2.0598532E-1,-2.8142172E-1,2.56942E-3,8.544704E-2,-3.3306727E-1,-3.907738E-2,1.3194382E-1,1.5217686E-1,-1.9270694E-1],"categories":[],"categories_nodes":[],"categories_segments":[],"categories_sizes":[],"default_left":[0,0,0,0,0,0,0,0,0,0,0,0,0,0,0],"id":3,"left_children":[1,3,-1,5,-1,7,-1,-1,9,11,13,-1,-1,-1,-1],"loss_changes":[2.1932695E0,2.1131828E0,0E0,1.8331265E0,0E0,2.5405562E0,0E0,0E0,1.5135461E0,3.3908944E0,3.1266909E0,0E0,0E0,0E0,0E0],"parents":[2147483647,0,0,1,1,3,3,5,5,8,8,9,9,10,10],"right_children":[2,4,-1,6,-1,8,-1,-1,10,12,14,-1,-1,-1,-1],"split_conditions":[6.9399476E-2,4.0594406E-2,-2.814228E-1,1.0515493E0,2.6263723E-1,-3.024432E-2,2.0598532E-1,-2.8142172E-1,6.8987727E0,9.900448E-1,-1.0797763E-2,-3.907738E-2,1.3194382E-1,1.5217686E-1,-1.9270694E-1],"split_indices":[3,3,0,2,0,3,0,0,0,2,3,0,0,0,0],"split_type":[0,0,0,0,0,0,0,0,0,0,0,0,0,0,0],"sum_hessian":[6.029741E1,5.890338E1,1.3940284E0,5.7034466E1,1.8689151E0,5.442565E1,2.6088147E0,2.0374825E0,5.238817E1,4.261164E1,9.776528E0,2.6881248E1,1.57303915E1,2.4580517E0,7.3184767E0],"tree_param":{"num_deleted":"0","num_feature":"4","num_nodes":"15","size_leaf_vector":"1"}},{"base_weights":[4.828948E-4,3.2403983E-2,-2.4619289E-1,-6.0044065E-2,4.0636897E-1,1.6550232E-2,-7.1004784E-1,-3.1265455E-1,8.496559E-1,-4.3627523E-2,2.543812E-1,2.609511E-3,-3.7766936E-1,1.3266176E-1,-2.3280124E-1,4.6204817E-1,3.4376156E-1,-6.878683E-1,9.806596E-2,-7.6670796E-2,1.4586055E-1,2.5903976E-1,-1.4892869E-1,-3.033083E-1,5.642008E-2,-2.724646E-1,4.8207168E-2],"categories":[],"categories_nodes":[],"categories_segments":[],"categories_sizes":[],"default_left":[0,0,0,0,0,0,0,0,0,0,0,0,0,0,0,0,0,0,0,0,0,0,0,0,0,0,0],"id":4,"left_children":[1,3,-1,5,7,9,11,13,15,17,-1,-1,-1,19,-1,21,-1,23,25,-1,-1,-1,-1,-1,-1,-1,-1],"loss_changes":[1.5952748E0,2.04931E0,0E0,2.3931563E0,4.0069404E0,2.2267125E0,2.009016E0,1.1774855E0,3.3514738E-1,3.8798866E0,0E0,0E0,0E0,6.059588E-1,0E0,2.3283987E0,0E0,2.3568182E0,2.3584936E0,0E0,0E0,0E0,0E0,0E0,0E0,0E0,0E0],"parents":[2147483647,0,0,1,1,3,3,4,4,5,5,6,6,7,7,8,8,9,9,13,13,15,15,17,17,18,18],"right_children":[2,4,-1,6,8,10,12,14,16,18,-1,-1,-1,20,-1,22,-1,24,26,-1,-1,-1,-1,-1,-1,-1,-1],"split_conditions":[6.9399476E-2,1.6460681E-2,-2.4619289E-1,1.1748063E-2,9.6487427E-1,1.0515493E0,9.7263867E-1,9.6103454E-1,1.0041906E0,9.787619E-1,2.543812E-1,2.609511E-3,-3.7766936E-1,9.4749093E-1,-2.3280124E-1,9.86738E-1,3.4376156E-1,1.0310627E0,-2.3406437E-2,-7.6670796E-2,1.4586055E-1,2.5903976E-1,-1.4892869E-1,-3.033083E-1,5.642008E-2,-2.724646E-1,4.8207168E-2],"split_indices":[3,3,0,3,2,2,2,2,1,1,0,0,0,2,0,1,0,2,3,0,0,0,0,0,0,0,0],"split_type":[0,0,0,0,0,0,0,0,0,0,0,0,0,0,0,0,0,0,0,0,0,0,0,0,0,0,0],"sum_hessian":[5.8847736E1,5.7570244E1,1.2774935E0,4.683226E1,1.0737984E1,4.2767246E1,4.065013E0,4.2076883E0,6.5302954E0,4.0764164E1,2.003082E0,2.1862118E0,1.8788011E0,2.5095236E0,1.6981648E0,3.9376256E0,2.5926695E0,6.654299E0,3.4109867E1,1.3281562E0,1.1813674E0,2.8451726E0,1.0924529E0,4.7482843E0,1.9060144E0,1.2073334E0,3.2902534E1],"tree_param":{"num_deleted":"0","num_feature":"4","num_nodes":"27","size_leaf_vector":"1"}},{"base_weights":[-7.1445866E-3,2.0101529E-2,-2.1887177E-1,-6.391494E-2,3.339256E-1,7.4151284E-3,-8.319794E-1,-2.551829E-1,6.6366684E-1,-4.2359628E-2,2.2930565E-1,-6.643661E-2,-3.621595E-1,5.7464767E-2,-1.8150015E-1,3.2386878E-1,2.8289178E-1,-6.551209E-1,4.0777124E-2,-1.6757452E-1,2.3340416E-1,-3.5946167E-1,4.538429E-2,-3.541608E-2,1.0853762E-1],"categories":[],"categories_nodes":[],"categories_segments":[],"categories_sizes":[],"default_left":[0,0,0,0,0,0,0,0,0,0,0,0,0,0,0,0,0,0,0,0,0,0,0,0,0],"id":5,"left_children":[1,3,-1,5,7,9,11,13,15,17,-1,-1,-1,-1,-1,-1,19,21,23,-1,-1,-1,-1,-1,-1],"loss_changes":[1.1653607E0,1.5323697E0,0E0,2.5288289E0,2.551525E0,1.6571299E0,6.310425E-1,9.164971E-1,9.8369074E-1,2.136295E0,0E0,0E0,0E0,0E0,0E0,0E0,2.7696295E0,2.3735254E0,1.9498725E0,0E0,0E0,0E0,0E0,0E0,0E0],"parents":[2147483647,0,0,1,1,3,3,4,4,5,5,6,6,7,7,8,8,9,9,16,16,17,17,18,18],"right_children":[2,4,-1,6,8,10,12,14,16,18,-1,-1,-1,-1,-1,-1,20,22,24,-1,-1,-1,-1,-1,-1],"split_conditions":[6.9399476E-2,1.5103538E-2,-2.1887177E-1,1.1748063E-2,9.6487427E-1,1.0515493E0,3.5042903E0,9.569562E-1,9.82154E-1,9.6113366E-1,2.2930565E-1,-6.643661E-2,-3.621595E-1,5.7464767E-2,-1.8150015E-1,3.2386878E-1,9.8980665E-1,1.0310627E0,3.8597941E0,-1.6757452E-1,2.3340416E-1,-3.5946167E-1,4.538429E-2,-3.541608E-2,1.0853762E-1],"split_indices":[3,3,0,3,2,2,0,2,2,1,0,0,0,0,0,0,2,2,0,0,0,0,0,0,0],"split_type":[0,0,0,0,0,0,0,0,0,0,0,0,0,0,0,0,0,0,0,0,0,0,0,0,0],"sum_hessian":[5.7460316E1,5.6308823E1,1.1514924E0,4.504562E1,1.1263205E1,4.212392E1,2.9216986E0,4.1230907E0,7.1401134E0,4.041063E1,1.7132891E0,1.7174363E0,1.2042621E0,2.0094142E0,2.1136768E0,2.5355387E0,4.6045747E0,4.0057945E0,3.640484E1,1.6582179E0,2.9463565E0,2.1033752E0,1.9024191E0,2.477767E1,1.1627167E1],"tree_param":{"num_deleted":"0","num_feature":"4","num_nodes":"25","size_leaf_vector":"1"}},{"base_weights":[-1.0706895E-2,4.4030815E-2,-2.862759E-1,-2.3211698E-1,1.0825498E-1,5.262189E-1,-7.4678385E-1,-2.5633972E-2,7.564222E-1,2.6405215E-1,-2.1860447E-2,-3.3412856E-1,2.5033196E-2,3.162324E-2,-3.087218E-1,-7.633746E-2,9.8395187E-1,-3.031504E-2,2.36643E-1,3.7802705E-1,-4.038686E-2,1.7884651E-2,-3.798821E-1],"categories":[],"categories_nodes":[],"categories_segments":[],"categories_sizes":[],"default_left":[0,0,0,0,0,0,0,0,0,0,0,0,0,0,0,0,0,0,0,0,0,0,0],"id":6,"left_children":[1,3,5,-1,7,9,11,13,15,-1,-1,-1,-1,17,-1,-1,19,21,-1,-1,-1,-1,-1],"loss_changes":[8.7544173E-1,2.6356514E0,3.9896636E0,0E0,4.005171E0,9.259114E-1,2.088158E0,2.275128E0,2.0664444E0,0E0,0E0,0E0,0E0,1.8011827E0,0E0,0E0,2.2238765E0,4.076161E0,0E0,0E0,0E0,0E0,0E0],"parents":[2147483647,0,0,1,1,2,2,4,4,5,5,6,6,7,7,8,8,13,13,16,16,17,17],"right_children":[2,4,6,-1,8,10,12,14,16,-1,-1,-1,-1,18,-1,-1,20,22,-1,-1,-1,-1,-1],"split_conditions":[1.0654467E0,9.5920604E-1,9.575759E-1,-2.3211698E-1,1.0359529E0,1.115068E0,1.0879064E0,1.0338545E0,2.0752265E0,2.6405215E-1,-2.1860447E-2,-3.3412856E-1,2.5033196E-2,1.0261896E0,-3.087218E-1,-7.633746E-2,8.124467E0,1.0232658E0,2.36643E-1,3.7802705E-1,-4.038686E-2,1.7884651E-2,-3.798821E-1],"split_indices":[1,2,2,0,1,1,1,1,0,0,0,0,0,1,0,0,0,1,0,0,0,0,0],"split_type":[0,0,0,0,0,0,0,0,0,0,0,0,0,0,0,0,0,0,0,0,0,0,0],"sum_hessian":[5.6202057E1,4.7589355E1,8.612703E0,2.6609356E0,4.492842E1,3.0640213E0,5.548682E0,3.8032642E1,6.895777E0,1.631123E0,1.4328983E0,3.6110218E0,1.9376603E0,3.6895817E1,1.136827E0,1.2451975E0,5.65058E0,3.499331E1,1.9025077E0,4.43036E0,1.2202197E0,3.3507042E1,1.4862661E0],"tree_param":{"num_deleted":"0","num_feature":"4","num_nodes":"23","size_leaf_vector":"1"}},{"base_weights":[-1.5044379E-2,4.308848E-1,-4.9588345E-2,7.980778E-3,2.3232085E-1,-4.263456E-1,2.1323867E-2,-8.279722E-1,3.7017494E-1,6.486635E-1,-3.9608866E-2,1.2245498E-3,-3.3141524E-1,-5.9328888E-2,2.5108925E-1,1.4134475E-2,3.1497136E-1,2.0368643E-1,-1.6817293E-1,5.3833E-1,-5.905963E-2,-7.3298824E-1,-1.8090116E-2,2.7786967E-1,-1.0292841E-1,-8.440405E-2,2.0652254E-1,-3.1729147E-2,-3.2947773E-1,1.4843269E-1,-4.3268893E-2],"categories":[],"categories_nodes":[],"categories_segments":[],"categories_sizes":[],"default_left":[0,0,0,0,0,0,0,0,0,0,0,0,0,0,0,0,0,0,0,0,0,0,0,0,0,0,0,0,0,0,0],"id":7,"left_children":[1,3,5,-1,-1,7,9,11,13,15,17,-1,-1,-1,-1,-1,-1,19,21,23,25,27,29,-1,-1,-1,-1,-1,-1,-1,-1],"loss_changes":[8.890853E-1,5.561743E-1,1.4298054E0,0E0,0E0,3.0164113E0,1.772828E0,1.3723979E0,1.1015054E0,9.4107485E-1,1.3668065E0,0E0,0E0,0E0,0E0,0E0,0E0,1.3666198E0,2.3959522E0,2.6345139E0,1.7563938E0,1.2450275E0,1.5903205E0,0E0,0E0,0E0,0E0,0E0,0E0,0E0,0E0],"parents":[2147483647,0,0,1,1,2,2,5,5,6,6,7,7,8,8,9,9,10,10,17,17,18,18,19,19,20,20,21,21,22,22],"right_children":[2,4,6,-1,-1,8,10,12,14,16,18,-1,-1,-1,-1,-1,-1,20,22,24,26,28,30,-1,-1,-1,-1,-1,-1,-1,-1],"split_conditions":[1.3058618E0,1.0749186E0,1.9319952E0,7.980778E-3,2.3232085E-1,9.900448E-1,2.0792584E0,9.780514E-1,1.5573375E0,4.6105417E-3,-2.2137892E-3,1.2245498E-3,-3.3141524E-1,-5.9328888E-2,2.5108925E-1,1.4134475E-2,3.1497136E-1,9.918347E-1,2.1646428E-3,1.0654467E0,1.0515493E0,4.8068604E0,4.6020867E-3,2.7786967E-1,-1.0292841E-1,-8.440405E-2,2.0652254E-1,-3.1729147E-2,-3.2947773E-1,1.4843269E-1,-4.3268893E-2],"split_indices":[0,0,0,0,0,2,0,2,0,3,3,0,0,0,0,0,0,2,3,1,2,0,3,0,0,0,0,0,0,0,0],"split_type":[0,0,0,0,0,0,0,0,0,0,0,0,0,0,0,0,0,0,0,0,0,0,0,0,0,0,0,0,0,0,0],"sum_hessian":[5.5330124E1,3.1531026E0,5.217702E1,1.9433908E0,1.2097118E0,7.471036E0,4.4705986E1,4.940447E0,2.5305893E0,3.1038976E0,4.1602085E1,1.4789948E0,3.4614518E0,1.4016043E0,1.128985E0,1.6890548E0,1.4148428E0,1.4181196E1,2.742089E1,5.7759113E0,8.405285E0,4.941262E0,2.247963E1,3.9755113E0,1.8004E0,6.9592853E0,1.4459999E0,2.293143E0,2.6481187E0,3.8605843E0,1.8619045E1],"tree_param":{"num_deleted":"0","num_feature":"4","num_nodes":"31","size_leaf_vector":"1"}},{"base_weights":[-7.5236586E-4,2.9317862E-1,-4.0210772E-2,-2.6330866E-2,2.137838E-1,-6.3309175E-1,1.6463172E-2,-1.5298826E-1,1.4512758E-1,-2.5146502E-1,-1.6059194E-2,2.0435156E-1,-6.7682765E-2,-1.1740672E-1,7.79883E-1,-8.3859354E-1,2.2782879E-2,1.7090234E-1,-6.104477E-1,2.8767312E-1,5.3575967E-2,-3.3293653E-1,-5.4856468E-2,-3.2706872E-1,1.778556E-1,-8.424156E-2,1.9746612E-1,-3.2489863E-1,1.01335615E-1,-2.1131635E-1,1.277676E-1,1.3503593E-1,-4.921517E-2],"categories":[],"categories_nodes":[],"categories_segments":[],"categories_sizes":[],"default_left":[0,0,0,0,0,0,0,0,0,0,0,0,0,0,0,0,0,0,0,0,0,0,0,0,0,0,0,0,0,0,0,0,0],"id":8,"left_children":[1,3,5,7,-1,9,11,-1,-1,-1,-1,13,15,17,19,21,23,25,27,-1,-1,-1,-1,29,31,-1,-1,-1,-1,-1,-1,-1,-1],"loss_changes":[6.521918E-1,9.1072464E-1,1.6757058E0,1.4165899E0,0E0,4.722128E-1,7.4443114E-1,0E0,0E0,0E0,0E0,2.7846427E0,2.2974205E0,1.5538284E0,4.042151E-1,4.1191268E-1,1.6971827E0,1.7732049E0,2.1498013E0,0E0,0E0,0E0,0E0,3.0361125E0,2.082719E0,0E0,0E0,0E0,0E0,0E0,0E0,0E0,0E0],"parents":[2147483647,0,0,1,1,2,2,3,3,5,5,6,6,11,11,12,12,13,13,14,14,15,15,16,16,17,17,18,18,23,23,24,24],"right_children":[2,4,6,8,-1,10,12,-1,-1,-1,-1,14,16,18,20,22,24,26,28,-1,-1,-1,-1,30,32,-1,-1,-1,-1,-1,-1,-1,-1],"split_conditions":[1.4946238E0,9.920945E-1,1.8042978E0,1.0153288E0,2.137838E-1,5.0571808E-3,3.1421087E0,-1.5298826E-1,1.4512758E-1,-2.5146502E-1,-1.6059194E-2,5.0918665E-3,3.4062788E0,1.0189855E0,9.8370385E-1,8.213503E-3,9.672691E-1,1.0039663E0,1.187496E-3,2.8767312E-1,5.3575967E-2,-3.3293653E-1,-5.4856468E-2,1.0879064E0,1.0001655E0,-8.424156E-2,1.9746612E-1,-3.2489863E-1,1.01335615E-1,-2.1131635E-1,1.277676E-1,1.3503593E-1,-4.921517E-2],"split_indices":[0,2,0,1,0,3,0,0,0,0,0,3,0,1,2,3,2,1,3,0,0,0,0,1,2,0,0,0,0,0,0,0,0],"split_type":[0,0,0,0,0,0,0,0,0,0,0,0,0,0,0,0,0,0,0,0,0,0,0,0,0,0,0,0,0,0,0,0,0],"sum_hessian":[5.421644E1,5.655771E0,4.8560665E1,3.7422698E0,1.9135011E0,3.3495343E0,4.5211132E1,1.9210865E0,1.8211832E0,2.1443026E0,1.2052318E0,1.3542877E1,3.1668255E1,9.197115E0,4.3457627E0,2.4574172E0,2.9210836E1,6.2157717E0,2.9813435E0,2.8904383E0,1.455324E0,1.2486048E0,1.2088125E0,8.630616E0,2.0580221E1,3.445668E0,2.7701035E0,1.8949062E0,1.0864375E0,5.792449E0,2.8381672E0,1.1280732E1,9.299489E0],"tree_param":{"num_deleted":"0","num_feature":"4","num_nodes":"33","size_leaf_vector":"1"}},{"base_weights":[-3.3009707E-3,-1.0052183E-1,1.3719034E-1,5.3033173E-2,-5.108741E-1,3.6413038E-1,-3.4051448E-1,2.6443332E-1,-1.3296738E-1,1.1564459E-1,-9.2385966E-1,-2.8510293E-1,5.3314954E-1,-5.4410046E-1,1.281649E-1,-2.155099E-1,4.8459625E-1,2.7330124E-1,-3.187763E-1,-3.0092052E-1,2.2400917E-1,-3.333922E-1,-4.5634918E-2,-2.8592056E-1,1.1190624E-1,7.400454E-2,7.143582E-1,9.39955E-2,-7.552976E-1,1.3521741E-1,-2.2875203E-1,1.0368855E-1,2.715283E-1,2.01603E-1,-9.433047E-2,-2.8396592E-1,-1.2497769E-1,-1.774708E-1,3.732012E-2,-1.5935087E-1,1.7777622E-1,1.0084871E-2,2.6093468E-1,-7.628705E-2,-2.7797696E-1,-7.231846E-2,1.7248705E-1,1.2259997E-1,-1.7142782E-1,-2.1361107E-1,9.337233E-2],"categories":[],"categories_nodes":[],"categories_segments":[],"categories_sizes":[],"default_left":[0,0,0,0,0,0,0,0,0,0,0,0,0,0,0,0,0,0,0,0,0,0,0,0,0,0,0,0,0,0,0,0,0,0,0,0,0,0,0,0,0,0,0,0,0,0,0,0,0,0,0],"id":9,"left_children":[1,3,5,7,9,11,13,15,17,19,21,23,25,27,-1,29,31,33,35,37,-1,-1,-1,-1,-1,39,41,-1,43,-1,-1,45,-1,-1,47,-1,49,-1,-1,-1,-1,-1,-1,-1,-1,-1,-1,-1,-1,-1,-1],"loss_changes":[7.518348E-1,2.0757568E0,2.5656443E0,1.001074E0,2.4219086E0,1.8805099E0,1.4469504E0,1.3546836E0,1.1238023E0,1.392768E0,6.271558E-1,2.0723054E0,1.0159883E0,1.4284632E0,0E0,1.9519125E0,1.2546445E0,7.7402467E-1,1.0843117E0,4.9258062E-1,0E0,0E0,0E0,0E0,0E0,1.8057654E0,9.331207E-1,0E0,2.427299E-1,0E0,0E0,1.0398004E0,0E0,0E0,1.0492767E0,0E0,2.4509091E0,0E0,0E0,0E0,0E0,0E0,0E0,0E0,0E0,0E0,0E0,0E0,0E0,0E0,0E0],"parents":[2147483647,0,0,1,1,2,2,3,3,4,4,5,5,6,6,7,7,8,8,9,9,10,10,11,11,12,12,13,13,15,15,16,16,17,17,18,18,19,19,25,25,26,26,28,28,31,31,34,34,36,36],"right_children":[2,4,6,8,10,12,14,16,18,20,22,24,26,28,-1,30,32,34,36,38,-1,-1,-1,-1,-1,40,42,-1,44,-1,-1,46,-1,-1,48,-1,50,-1,-1,-1,-1,-1,-1,-1,-1,-1,-1,-1,-1,-1,-1],"split_conditions":[9.900448E-1,9.825386E-1,6.086044E0,1.0421444E0,3.6626684E-3,-1.4045746E-2,2.1999255E-2,9.672691E-1,9.575759E-1,2.6015897E0,3.6796157E0,1.0103861E0,9.934595E-1,9.257923E-1,1.281649E-1,2.573904E0,1.0252976E0,6.1764884E0,9.600583E-1,9.8701626E-1,2.2400917E-1,-3.333922E-1,-4.5634918E-2,-2.8592056E-1,1.1190624E-1,1.007926E0,9.649838E-1,9.39955E-2,-1.0797763E-2,1.3521741E-1,-2.2875203E-1,3.3988717E0,2.715283E-1,2.01603E-1,9.1653943E-1,-2.8396592E-1,-7.4522017E-4,-1.774708E-1,3.732012E-2,-1.5935087E-1,1.7777622E-1,1.0084871E-2,2.6093468E-1,-7.628705E-2,-2.7797696E-1,-7.231846E-2,1.7248705E-1,1.2259997E-1,-1.7142782E-1,-2.1361107E-1,9.337233E-2],"split_indices":[2,2,0,1,3,3,3,2,2,0,0,2,2,1,0,0,1,0,2,2,0,0,0,0,0,1,1,0,3,0,0,0,0,0,2,0,3,0,0,0,0,0,0,0,0,0,0,0,0,0,0],"split_type":[0,0,0,0,0,0,0,0,0,0,0,0,0,0,0,0,0,0,0,0,0,0,0,0,0,0,0,0,0,0,0,0,0,0,0,0,0,0,0,0,0,0,0,0,0,0,0,0,0,0,0],"sum_hessian":[5.3034782E1,3.1512463E1,2.152232E1,2.3565098E1,7.9473653E0,1.4751957E1,6.7703633E0,1.083211E1,1.2732986E1,3.443457E0,4.5039086E0,2.9053128E0,1.1846644E1,5.5815434E0,1.1888199E0,3.413028E0,7.419082E0,3.8481617E0,8.884825E0,2.3893588E0,1.0540981E0,3.2697318E0,1.2341766E0,1.2194582E0,1.6858546E0,3.7509398E0,8.095705E0,1.0075507E0,4.5739927E0,1.6181477E0,1.7948803E0,4.5468807E0,2.8722014E0,1.4488705E0,2.3992913E0,1.1795782E0,7.705247E0,1.1871953E0,1.2021636E0,1.7197546E0,2.0311852E0,1.7308855E0,6.364819E0,1.7984117E0,2.775581E0,2.908032E0,1.6388487E0,1.2377609E0,1.1615304E0,3.0151684E0,4.6900783E0],"tree_param":{"num_deleted":"0","num_feature":"4","num_nodes":"51","size_leaf_vector":"1"}},{"base_weights":[-5.9745796E-3,-4.0173944E-2,3.427384E-1,1.3921949E-2,-2.4875487E-1,2.0286918E-1,-2.3094911E-2,-4.0896546E-2,7.08912E-1,-2.7247447E-1,6.2394332E-2,2.7026364E-1,4.4493698E-2,-5.4446977E-2,-6.5213144E-1,6.8654317E-1,-3.3759363E-2,-9.03447E-2,1.5922165E-1,2.2168994E-2,-3.1657287E-1,8.1975095E-2,2.538652E-1,-4.9221817E-2,6.420174E-2],"categories":[],"categories_nodes":[],"categories_segments":[],"categories_sizes":[],"default_left":[0,0,0,0,0,0,0,0,0,0,0,0,0,0,0,0,0,0,0,0,0,0,0,0,0],"id":10,"left_children":[1,3,5,7,-1,-1,-1,9,11,13,15,-1,-1,17,19,21,23,-1,-1,-1,-1,-1,-1,-1,-1],"loss_changes":[6.3160247E-1,2.063473E0,7.144092E-1,1.7805061E0,0E0,0E0,0E0,1.0589002E0,2.33971E-1,1.092049E0,1.8797799E0,0E0,0E0,1.5665187E0,1.5056152E0,4.4389844E-2,9.3138665E-1,0E0,0E0,0E0,0E0,0E0,0E0,0E0,0E0],"parents":[2147483647,0,0,1,1,2,2,3,3,7,7,8,8,9,9,10,10,13,13,14,14,15,15,16,16],"right_children":[2,4,6,8,-1,-1,-1,10,12,14,16,-1,-1,18,20,22,24,-1,-1,-1,-1,-1,-1,-1,-1],"split_conditions":[1.0345094E0,1.0252815E0,9.375118E-1,1.0142066E0,-2.4875487E-1,2.0286918E-1,-2.3094911E-2,1.0090362E0,3.0383935E0,1.0027943E0,1.0135167E0,2.7026364E-1,4.4493698E-2,9.9571455E-1,2.573904E0,1.0120916E0,5.4005833E0,-9.03447E-2,1.5922165E-1,2.2168994E-2,-3.1657287E-1,8.1975095E-2,2.538652E-1,-4.9221817E-2,6.420174E-2],"split_indices":[2,2,1,2,0,0,0,1,0,1,1,0,0,1,0,1,0,0,0,0,0,0,0,0,0],"split_type":[0,0,0,0,0,0,0,0,0,0,0,0,0,0,0,0,0,0,0,0,0,0,0,0,0],"sum_hessian":[5.0806618E1,4.7074654E1,3.7319639E0,4.497354E1,2.101113E0,1.73905E0,1.992914E0,4.2557873E1,2.415668E0,1.2621828E1,2.9936047E1,1.3473145E0,1.0683534E0,8.74386E0,3.8779685E0,3.176543E0,2.6759502E1,6.492245E0,2.2516148E0,1.6760268E0,2.2019417E0,1.6408209E0,1.535722E0,1.7757595E1,9.001908E0],"tree_param":{"num_deleted":"0","num_feature":"4","num_nodes":"25","size_leaf_vector":"1"}},{"base_weights":[3.9766743E-3,-5.068908E-2,2.0121522E-1,4.0958836E-3,-6.145894E-1,-2.828248E-1,5.3732914E-1,4.463506E-1,-6.3714474E-2,-5.8026742E-2,-2.4992646E-1,6.770069E-2,-1.6997613E-1,2.0116302E-1,2.4693923E-1,2.0052588E-3,2.9488876E-1,1.471677E-2,-2.4057837E-1,7.5326905E-2,-4.3569617E-2,5.9168744E-1,-1.6984126E-1,1.6251013E-1,-1.1467783E-1,-4.4246694E-1,7.94613E-2,4.5146596E-2,2.1686614E-1,-1.9940872E-1,1.0081315E-2,1.8491447E-1,-2.5934493E-2],"categories":[],"categories_nodes":[],"categories_segments":[],"categories_sizes":[],"default_left":[0,0,0,0,0,0,0,0,0,0,0,0,0,0,0,0,0,0,0,0,0,0,0,0,0,0,0,0,0,0,0,0,0],"id":11,"left_children":[1,3,5,7,9,11,13,15,17,-1,-1,19,-1,21,-1,23,-1,25,-1,-1,-1,27,-1,-1,-1,29,31,-1,-1,-1,-1,-1,-1],"loss_changes":[5.6203526E-1,1.2651999E0,1.991675E0,1.1754316E0,1.7253351E-1,5.6446546E-1,5.0873494E-1,1.2402067E0,1.9825071E0,0E0,0E0,1.6375037E-1,0E0,1.6979423E0,0E0,1.0058861E0,0E0,9.7496337E-1,0E0,0E0,0E0,9.400368E-2,0E0,0E0,0E0,4.551291E-1,2.6062531E0,0E0,0E0,0E0,0E0,0E0,0E0],"parents":[2147483647,0,0,1,1,2,2,3,3,4,4,5,5,6,6,7,7,8,8,11,11,13,13,15,15,17,17,21,21,25,25,26,26],"right_children":[2,4,6,8,10,12,14,16,18,-1,-1,20,-1,22,-1,24,-1,26,-1,-1,-1,28,-1,-1,-1,30,32,-1,-1,-1,-1,-1,-1],"split_conditions":[1.5103538E-2,1.1748063E-2,9.653572E-1,9.6196747E-1,3.5042903E0,9.569562E-1,1.0041906E0,9.5977277E-1,1.0654467E0,-5.8026742E-2,-2.4992646E-1,9.393684E0,-1.6997613E-1,9.887482E-1,2.4693923E-1,1.3659966E-4,2.9488876E-1,9.730628E-1,-2.4057837E-1,7.5326905E-2,-4.3569617E-2,9.500117E-1,-1.6984126E-1,1.6251013E-1,-1.1467783E-1,1.0354037E0,9.8387945E-1,4.5146596E-2,2.1686614E-1,-1.9940872E-1,1.0081315E-2,1.8491447E-1,-2.5934493E-2],"split_indices":[3,3,2,2,0,2,1,2,1,0,0,0,0,1,0,3,0,2,0,0,0,1,0,0,0,1,2,0,0,0,0,0,0],"split_type":[0,0,0,0,0,0,0,0,0,0,0,0,0,0,0,0,0,0,0,0,0,0,0,0,0,0,0,0,0,0,0,0,0],"sum_hessian":[5.0180294E1,3.9872433E1,1.0307859E1,3.7246536E1,2.6258996E0,4.2893214E0,6.0185375E0,4.2095814E0,3.3036953E1,1.5409253E0,1.0849744E0,2.2595565E0,2.0297647E0,3.548532E0,2.4700055E0,2.8518355E0,1.357746E0,3.0749994E1,2.286959E0,1.1177199E0,1.1418366E0,2.5033176E0,1.0452144E0,1.0156546E0,1.836181E0,3.0907917E0,2.7659203E1,1.0659058E0,1.4374119E0,1.837051E0,1.2537408E0,5.888275E0,2.1770927E1],"tree_param":{"num_deleted":"0","num_feature":"4","num_nodes":"33","size_leaf_vector":"1"}},{"base_weights":[3.1468216E-3,-2.825634E-2,3.195268E-1,1.7180698E-2,-2.0384756E-1,1.7878875E-1,-7.644484E-3,-3.002245E-2,6.1629236E-1,2.3166934E-2,-3.2424098E-1,2.4071191E-1,3.3260245E-2,-6.2145E-2,5.109005E-1,-2.0499273E-1,9.553419E-2,-6.130556E-2,6.2341493E-2,1.8711671E-1,1.5733453E-3],"categories":[],"categories_nodes":[],"categories_segments":[],"categories_sizes":[],"default_left":[0,0,0,0,0,0,0,0,0,0,0,0,0,0,0,0,0,0,0,0,0],"id":12,"left_children":[1,3,5,7,-1,-1,-1,9,11,13,15,-1,-1,17,19,-1,-1,-1,-1,-1,-1],"loss_changes":[5.057066E-1,1.3845379E0,4.5344266E-1,1.272585E0,0E0,0E0,0E0,6.657228E-1,2.2001314E-1,1.5527375E0,1.7190344E0,0E0,0E0,1.2710383E0,3.1337333E-1,0E0,0E0,0E0,0E0,0E0,0E0],"parents":[2147483647,0,0,1,1,2,2,3,3,7,7,8,8,9,9,10,10,13,13,14,14],"right_children":[2,4,6,8,-1,-1,-1,10,12,14,16,-1,-1,18,20,-1,-1,-1,-1,-1,-1],"split_conditions":[1.0345094E0,1.0252815E0,9.375118E-1,1.0142066E0,-2.0384756E-1,1.7878875E-1,-7.644484E-3,9.519617E0,3.0383935E0,6.0204487E0,1.0839524E0,2.4071191E-1,3.3260245E-2,9.8929584E-1,9.8810226E-1,-2.0499273E-1,9.553419E-2,-6.130556E-2,6.2341493E-2,1.8711671E-1,1.5733453E-3],"split_indices":[2,2,1,2,0,0,0,0,0,0,1,0,0,2,2,0,0,0,0,0,0],"split_type":[0,0,0,0,0,0,0,0,0,0,0,0,0,0,0,0,0,0,0,0,0],"sum_hessian":[4.8991077E1,4.5395874E1,3.5952034E0,4.3345272E1,2.0506036E0,1.5921326E0,2.0030708E0,4.1060093E1,2.2851775E0,3.555386E1,5.5062346E0,1.2408252E0,1.0443523E0,3.1003471E1,4.550389E0,3.4920385E0,2.0141964E0,2.0465471E1,1.0537999E1,3.5294151E0,1.0209737E0],"tree_param":{"num_deleted":"0","num_feature":"4","num_nodes":"21","size_leaf_vector":"1"}},{"base_weights":[9.292145E-3,3.2930877E-2,-1.1978081E-1,-1.0533246E-2,2.4263524E-1,4.620399E-2,-3.2992804E-1,-1.432925E-2,3.906565E-1,-6.483533E-2,-5.8231497E-1,5.981056E-2,-4.4369656E-1,2.1425544E-1,4.8402037E-2,3.3584747E-1,-1.6849841E-1,-2.4510467E-1,-2.445887E-2,-2.013851E-2,8.769087E-2,5.168094E-2,-2.2746709E-1,-1.1736526E-1,1.02459185E-1,-5.800526E-2,2.2010633E-1],"categories":[],"categories_nodes":[],"categories_segments":[],"categories_sizes":[],"default_left":[0,0,0,0,0,0,0,0,0,0,0,0,0,0,0,0,0,0,0,0,0,0,0,0,0,0,0],"id":13,"left_children":[1,3,-1,5,-1,7,9,11,13,15,17,19,21,-1,23,25,-1,-1,-1,-1,-1,-1,-1,-1,-1,-1,-1],"loss_changes":[4.8781288E-1,1.6063801E0,0E0,8.462475E-1,0E0,8.358156E-1,4.3327057E-1,1.1352944E0,6.283483E-1,1.0961745E0,3.4254968E-1,9.221902E-1,1.1472442E0,0E0,6.4674336E-1,8.049308E-1,0E0,0E0,0E0,0E0,0E0,0E0,0E0,0E0,0E0,0E0,0E0],"parents":[2147483647,0,0,1,1,3,3,5,5,6,6,7,7,8,8,9,9,10,10,11,11,12,12,14,14,15,15],"right_children":[2,4,-1,6,-1,8,10,12,14,16,18,20,22,-1,24,26,-1,-1,-1,-1,-1,-1,-1,-1,-1,-1,-1],"split_conditions":[1.115068E0,1.087987E0,-1.1978081E-1,1.0511038E0,2.4263524E-1,1.0359529E0,9.6196747E-1,1.0232658E0,1.0421444E0,1.1122625E-2,4.6955853E0,1.0090362E0,2.0625E0,2.1425544E-1,2.6100914E0,9.5977277E-1,-1.6849841E-1,-2.4510467E-1,-2.445887E-2,-2.013851E-2,8.769087E-2,5.168094E-2,-2.2746709E-1,-1.1736526E-1,1.02459185E-1,-5.800526E-2,2.2010633E-1],"split_indices":[1,1,0,1,0,1,2,1,1,3,0,1,0,0,0,2,0,0,0,0,0,0,0,0,0,0,0],"split_type":[0,0,0,0,0,0,0,0,0,0,0,0,0,0,0,0,0,0,0,0,0,0,0,0,0,0,0],"sum_hessian":[4.8147938E1,4.638365E1,1.7642877E0,4.485713E1,1.5265205E0,3.881702E1,6.04011E0,3.3830185E1,4.986834E0,3.5589168E0,2.481193E0,2.9582764E1,4.2474213E0,2.0049121E0,2.9819217E0,2.1494396E0,1.4094772E0,1.2594599E0,1.2217332E0,1.9595207E1,9.987557E0,1.5886047E0,2.6588168E0,1.0590234E0,1.9228984E0,1.1430194E0,1.0064201E0],"tree_param":{"num_deleted":"0","num_feature":"4","num_nodes":"27","size_leaf_vector":"1"}},{"base_weights":[5.625119E-3,-1.5736522E-2,1.1944765E-1,-2.1245222E-1,2.0303199E-2,-5.097328E-3,1.520571E-1,3.0888494E-2,-1.5740745E-1,-1.3874027E-2,1.8235815E-1,-5.4156307E-2,2.9830763E-2],"categories":[],"categories_nodes":[],"categories_segments":[],"categories_sizes":[],"default_left":[0,0,0,0,0,0,0,0,0,0,0,0,0],"id":14,"left_children":[1,3,-1,-1,5,7,-1,9,-1,11,-1,-1,-1],"loss_changes":[4.1213447E-1,1.1839571E0,0E0,0E0,5.6515914E-1,8.436333E-1,0E0,1.1016839E0,0E0,7.781752E-1,0E0,0E0,0E0],"parents":[2147483647,0,0,1,1,4,4,5,5,7,7,9,9],"right_children":[2,4,-1,-1,6,8,-1,10,-1,12,-1,-1,-1],"split_conditions":[1.0515493E0,-3.024432E-2,1.1944765E-1,-2.1245222E-1,1.0345094E0,1.0252815E0,1.520571E-1,1.0142066E0,-1.5740745E-1,2.6965683E0,1.8235815E-1,-5.4156307E-2,2.9830763E-2],"split_indices":[2,3,0,0,2,2,0,2,0,0,0,0,0],"split_type":[0,0,0,0,0,0,0,0,0,0,0,0,0],"sum_hessian":[4.7403206E1,4.586704E1,1.5361688E0,1.3465086E0,4.452053E1,4.325208E1,1.2684501E0,4.1330204E1,1.9218763E0,3.9260273E1,2.069929E0,1.5650148E1,2.3610126E1],"tree_param":{"num_deleted":"0","num_feature":"4","num_nodes":"13","size_leaf_vector":"1"}},{"base_weights":[5.2790865E-3,3.4997392E-1,-2.322683E-2,1.7617407E-1,-1.5506088E-2,-3.3568203E-1,3.0892275E-2,-5.957144E-1,4.7741253E-2,3.9875495E-1,-2.5059743E-2,-2.7894115E-1,3.955411E-2,1.4532919E-1,-1.6356653E-1,-8.867723E-2,6.889188E-1,-1.9392495E-1,1.8922312E-2,2.5775275E-1,8.2117826E-2,2.6885036E-1,-1.10990606E-1,-9.039533E-2,1.1817648E-1,-2.3044969E-1,-9.885842E-4],"categories":[],"categories_nodes":[],"categories_segments":[],"categories_sizes":[],"default_left":[0,0,0,0,0,0,0,0,0,0,0,0,0,0,0,0,0,0,0,0,0,0,0,0,0,0,0],"id":15,"left_children":[1,3,5,-1,-1,7,9,11,13,15,17,-1,-1,-1,-1,-1,19,-1,21,-1,-1,23,25,-1,-1,-1,-1],"loss_changes":[4.7920987E-1,3.8528493E-1,7.7501136E-1,0E0,0E0,7.024433E-1,8.221576E-1,1.1197739E0,1.2112505E0,1.2650971E0,9.739295E-1,0E0,0E0,0E0,0E0,0E0,4.870546E-2,0E0,1.1284423E0,0E0,0E0,9.647803E-1,1.6232291E0,0E0,0E0,0E0,0E0],"parents":[2147483647,0,0,1,1,2,2,5,5,6,6,7,7,8,8,9,9,10,10,16,16,18,18,21,21,22,22],"right_children":[2,4,6,-1,-1,8,10,12,14,16,18,-1,-1,-1,-1,-1,20,-1,22,-1,-1,24,26,-1,-1,-1,-1],"split_conditions":[1.3058618E0,9.914484E-1,1.8439394E0,1.7617407E-1,-1.5506088E-2,1.0153288E0,2.2067013E0,1.0035555E0,1.6222931E0,-9.503811E-4,2.3848753E0,-2.7894115E-1,3.955411E-2,1.4532919E-1,-1.6356653E-1,-8.867723E-2,9.8677903E-1,-1.9392495E-1,-2.2137892E-3,2.5775275E-1,8.2117826E-2,-3.024432E-2,9.236077E-5,-9.039533E-2,1.1817648E-1,-2.3044969E-1,-9.885842E-4],"split_indices":[0,2,0,0,0,1,0,2,0,3,0,0,0,0,0,0,2,0,3,0,0,3,3,0,0,0,0],"split_type":[0,0,0,0,0,0,0,0,0,0,0,0,0,0,0,0,0,0,0,0,0,0,0,0,0,0,0],"sum_hessian":[4.6943077E1,2.7242372E0,4.421884E1,1.422109E0,1.3021282E0,5.760144E0,3.8458694E1,3.1024399E0,2.6577046E0,4.268466E0,3.419023E1,1.9356395E0,1.1668003E0,1.6359432E0,1.0217614E0,1.2525299E0,3.0159361E0,1.3546814E0,3.283555E1,1.3804973E0,1.6354387E0,1.0864612E1,2.1970938E1,1.7010021E0,9.163609E0,2.2300475E0,1.974089E1],"tree_param":{"num_deleted":"0","num_feature":"4","num_nodes":"27","size_leaf_vector":"1"}},{"base_weights":[-1.0847662E-3,2.9709768E-1,-2.543097E-2,1.5200025E-1,-1.2819949E-2,-2.972325E-1,1.8398972E-2,-4.92723E-1,3.339863E-2,3.2004818E-1,-2.9009819E-2,-2.3379026E-1,3.3319205E-2,-6.701201E-2,8.016996E-2,2.074037E-1,-8.917338E-2,-1.5810537E-1,7.3086065E-3,7.156523E-2,-1.0907832E-1,1.7279555E-1,-2.9525284E-2,-1.9411875E-1,7.0968634E-3],"categories":[],"categories_nodes":[],"categories_segments":[],"categories_sizes":[],"default_left":[0,0,0,0,0,0,0,0,0,0,0,0,0,0,0,0,0,0,0,0,0,0,0,0,0],"id":16,"left_children":[1,3,5,-1,-1,7,9,11,13,15,17,-1,-1,-1,-1,-1,19,-1,21,-1,-1,-1,23,-1,-1],"loss_changes":[3.4998432E-1,2.8084484E-1,5.3595203E-1,0E0,0E0,4.1990072E-1,5.7113177E-1,7.762686E-1,2.5517824E-1,8.850495E-1,6.345157E-1,0E0,0E0,0E0,0E0,0E0,3.9823854E-1,0E0,7.1839964E-1,0E0,0E0,0E0,1.0793471E0,0E0,0E0],"parents":[2147483647,0,0,1,1,2,2,5,5,6,6,7,7,8,8,9,9,10,10,16,16,18,18,22,22],"right_children":[2,4,6,-1,-1,8,10,12,14,16,18,-1,-1,-1,-1,-1,20,-1,22,-1,-1,-1,24,-1,-1],"split_conditions":[1.3058618E0,9.914484E-1,1.8042978E0,1.5200025E-1,-1.2819949E-2,1.0153288E0,2.2067013E0,1.0035555E0,9.734986E-1,1.0144478E0,2.3848753E0,-2.3379026E-1,3.3319205E-2,-6.701201E-2,8.016996E-2,2.074037E-1,9.809388E-1,-1.5810537E-1,2.600023E0,7.156523E-2,-1.0907832E-1,1.7279555E-1,2.6965683E0,-1.9411875E-1,7.0968634E-3],"split_indices":[0,2,0,0,0,1,0,2,2,1,0,0,0,0,0,0,2,0,0,0,0,0,0,0,0],"split_type":[0,0,0,0,0,0,0,0,0,0,0,0,0,0,0,0,0,0,0,0,0,0,0,0,0],"sum_hessian":[4.6169033E1,2.6394217E0,4.352961E1,1.3289396E0,1.3104821E0,5.2418656E0,3.8287746E1,2.9860628E0,2.2558029E0,4.4191403E0,3.3868607E1,1.8278258E0,1.1582369E0,1.0964913E0,1.1593114E0,1.9554727E0,2.4636679E0,1.3837137E0,3.248489E1,1.1823602E0,1.2813077E0,1.0856853E0,3.1399206E1,1.604213E0,2.9794992E1],"tree_param":{"num_deleted":"0","num_feature":"4","num_nodes":"25","size_leaf_vector":"1"}},{"base_weights":[-1.5410365E-3,-7.029002E-2,9.7466156E-2,3.005961E-1,-1.3431515E-1,-1.072331E-1,4.7864836E-1,-2.2731144E-2,1.6031867E-1,7.311577E-2,-2.8255868E-1,-2.0850943E-1,1.7036271E-1,6.828598E-1,-4.91636E-3,-5.723512E-1,3.086479E-1,-5.011758E-1,4.8157606E-2,-5.7047266E-1,6.726309E-2,7.609594E-2,2.5796384E-1,-2.5293093E-2,-2.436008E-1,6.07238E-1,-3.0934095E-1,5.4335818E-2,-6.3136876E-1,1.7352386E-1,-2.4673606E-1,3.163035E-2,-7.4796176E-1,-1.388786E-1,2.429092E-1,-2.4371352E-3,2.7051577E-1,7.4121E-2,-2.036045E-1,-2.2722824E-1,-3.5007756E-2,-1.464954E-1,6.356043E-2,-8.319113E-2,-2.703362E-1,1.3333586E-1,-1.2944773E-1],"categories":[],"categories_nodes":[],"categories_segments":[],"categories_sizes":[],"default_left":[0,0,0,0,0,0,0,0,0,0,0,0,0,0,0,0,0,0,0,0,0,0,0,0,0,0,0,0,0,0,0,0,0,0,0,0,0,0,0,0,0,0,0,0,0,0,0],"id":17,"left_children":[1,3,5,7,9,11,13,-1,-1,15,17,19,-1,21,-1,23,25,27,29,31,33,-1,-1,-1,-1,35,37,-1,39,-1,41,-1,43,-1,45,-1,-1,-1,-1,-1,-1,-1,-1,-1,-1,-1,-1],"loss_changes":[3.2489744E-1,7.090136E-1,1.5781711E0,4.3242517E-1,7.8031003E-1,1.044729E0,7.2083855E-1,0E0,0E0,1.8627825E0,1.080656E0,1.2873421E0,0E0,1.6125894E-1,0E0,3.1931365E-1,1.8071337E0,9.0361977E-1,1.1947381E0,7.4060476E-1,8.571042E-1,0E0,0E0,0E0,0E0,1.1406627E0,8.9131534E-1,0E0,4.1016674E-1,0E0,6.601146E-1,0E0,7.395315E-2,0E0,1.0973158E0,0E0,0E0,0E0,0E0,0E0,0E0,0E0,0E0,0E0,0E0,0E0,0E0],"parents":[2147483647,0,0,1,1,2,2,3,3,4,4,5,5,6,6,9,9,10,10,11,11,13,13,15,15,16,16,17,17,18,18,19,19,20,20,25,25,26,26,28,28,30,30,32,32,34,34],"right_children":[2,4,6,8,10,12,14,-1,-1,16,18,20,-1,22,-1,24,26,28,30,32,34,-1,-1,-1,-1,36,38,-1,40,-1,42,-1,44,-1,46,-1,-1,-1,-1,-1,-1,-1,-1,-1,-1,-1,-1],"split_conditions":[9.900448E-1,-6.4806174E-3,2.3487944E-3,4.6955853E0,3.2581985E0,1.0515493E0,5.9281344E0,-2.2731144E-2,1.6031867E-1,1.187496E-3,6.0204487E0,9.787619E-1,1.7036271E-1,5.0918665E-3,-4.91636E-3,1.0192901E0,9.8370385E-1,1.3659966E-4,7.861268E0,9.3987024E-1,-1.4045746E-2,7.609594E-2,2.5796384E-1,-2.5293093E-2,-2.436008E-1,1.7436455E0,3.8588133E-3,5.4335818E-2,1.0668321E0,1.7352386E-1,1.0839524E0,3.163035E-2,3.5299616E0,-1.388786E-1,7.948296E-4,-2.4371352E-3,2.7051577E-1,7.4121E-2,-2.036045E-1,-2.2722824E-1,-3.5007756E-2,-1.464954E-1,6.356043E-2,-8.319113E-2,-2.703362E-1,1.3333586E-1,-1.2944773E-1],"split_indices":[2,3,3,0,0,2,0,0,0,3,0,1,0,3,0,1,2,3,0,1,3,0,0,0,0,0,3,0,1,0,1,0,0,0,3,0,0,0,0,0,0,0,0,0,0,0,0],"split_type":[0,0,0,0,0,0,0,0,0,0,0,0,0,0,0,0,0,0,0,0,0,0,0,0,0,0,0,0,0,0,0,0,0,0,0,0,0,0,0,0,0,0,0,0,0,0,0],"sum_hessian":[4.57259E1,2.7157927E1,1.8567972E1,3.454081E0,2.3703844E1,1.2548152E1,6.0198197E0,1.582506E0,1.8715751E0,1.0090883E1,1.3612961E1,1.1512285E1,1.0358666E0,3.9931564E0,2.0266633E0,2.3154488E0,7.775435E0,7.885135E0,5.727826E0,4.5160894E0,6.996196E0,1.8764279E0,2.1167288E0,1.2077389E0,1.1077099E0,5.2541933E0,2.5212414E0,1.2008324E0,6.684303E0,1.7034265E0,4.0243998E0,1.0236878E0,3.4924018E0,1.3339778E0,5.6622176E0,2.0153131E0,3.2388804E0,1.1379595E0,1.383282E0,4.990364E0,1.693939E0,2.593443E0,1.4309567E0,1.5474974E0,1.9449044E0,4.6219296E0,1.0402881E0],"tree_param":{"num_deleted":"0","num_feature":"4","num_nodes":"47","size_leaf_vector":"1"}},{"base_weights":[-1.3585418E-3,2.1886947E-2,-1.1116459E-1,-1.5498349E-2,1.9841652E-1,4.2738542E-2,-3.3842045E-1,-2.0882303E-2,3.0039188E-1,-1.0121833E-1,-5.3957605E-1,2.9154021E-2,-1.7424174E-1,4.1492325E-1,-5.5159748E-2,8.031519E-2,-1.5639038E-1,-2.1861763E-1,-2.8270615E-2,-1.627229E-2,1.0204032E-1,1.1448157E-2,1.5497889E-1],"categories":[],"categories_nodes":[],"categories_segments":[],"categories_sizes":[],"default_left":[0,0,0,0,0,0,0,0,0,0,0,0,0,0,0,0,0,0,0,0,0,0,0],"id":18,"left_children":[1,3,-1,5,-1,7,9,11,13,15,17,19,-1,21,-1,-1,-1,-1,-1,-1,-1,-1,-1],"loss_changes":[3.9098015E-1,1.0362538E0,0E0,7.95318E-1,0E0,5.9746194E-1,2.534383E-1,8.5346454E-1,4.7600508E-1,7.894913E-1,2.0615894E-1,7.539786E-1,0E0,2.1531653E-1,0E0,0E0,0E0,0E0,0E0,0E0,0E0,0E0,0E0],"parents":[2147483647,0,0,1,1,3,3,5,5,6,6,7,7,8,8,9,9,10,10,11,11,13,13],"right_children":[2,4,-1,6,-1,8,10,12,14,16,18,20,-1,22,-1,-1,-1,-1,-1,-1,-1,-1,-1],"split_conditions":[1.115068E0,1.087987E0,-1.1116459E-1,1.0511038E0,1.9841652E-1,1.425413E-2,9.6196747E-1,1.1748063E-2,1.065947E1,1.1122625E-2,4.6955853E0,5.2660755E-3,-1.7424174E-1,9.653572E-1,-5.5159748E-2,8.031519E-2,-1.5639038E-1,-2.1861763E-1,-2.8270615E-2,-1.627229E-2,1.0204032E-1,1.1448157E-2,1.5497889E-1],"split_indices":[1,1,0,1,0,3,2,3,0,3,0,3,0,2,0,0,0,0,0,0,0,0,0],"split_type":[0,0,0,0,0,0,0,0,0,0,0,0,0,0,0,0,0,0,0,0,0,0,0],"sum_hessian":[4.3613117E1,4.1914738E1,1.698381E0,4.0521606E1,1.393131E0,3.5065434E1,5.4561715E0,2.885852E1,6.206915E0,3.1935413E0,2.2626302E0,2.7361364E1,1.4971557E0,5.135499E0,1.0714157E0,1.8933874E0,1.3001537E0,1.1414781E0,1.121152E0,2.2226507E1,5.134857E0,1.3836238E0,3.7518754E0],"tree_param":{"num_deleted":"0","num_feature":"4","num_nodes":"23","size_leaf_vector":"1"}},{"base_weights":[-5.66214E-3,-5.468731E-2,1.559452E-1,-1.749158E-2,-1.7769893E-1,-3.2137703E-2,4.5477048E-1,-6.0380023E-2,1.6922878E-1,2.9995543E-1,-1.8225694E-1,-1.4890724E-2,2.2926463E-1,-4.0205923E-1,1.4507446E-2,-1.0518126E-2,2.2806454E-1,-7.773823E-1,6.952014E-2,2.973214E-1,-8.479837E-2,-2.3945098E-1,1.0139201E-1,-3.1528822E-1,-4.9277958E-2,-6.412723E-2,1.5392032E-1,3.971609E-2,-8.0585934E-2,1.7148606E-2,-1.2387652E-1],"categories":[],"categories_nodes":[],"categories_segments":[],"categories_sizes":[],"default_left":[0,0,0,0,0,0,0,0,0,0,0,0,0,0,0,0,0,0,0,0,0,0,0,0,0,0,0,0,0,0,0],"id":19,"left_children":[1,3,5,7,-1,9,11,13,-1,15,-1,-1,-1,17,19,21,-1,23,-1,25,27,29,-1,-1,-1,-1,-1,-1,-1,-1,-1],"loss_changes":[3.5751295E-1,6.802921E-1,6.0542536E-1,8.654684E-1,0E0,1.5934358E0,6.820273E-1,8.2324904E-1,0E0,7.7280855E-1,0E0,0E0,0E0,1.5545628E0,7.8823006E-1,4.146124E-1,0E0,4.7458553E-1,0E0,9.1265357E-1,8.693877E-1,1.8360192E-1,0E0,0E0,0E0,0E0,0E0,0E0,0E0,0E0,0E0],"parents":[2147483647,0,0,1,1,2,2,3,3,5,5,6,6,7,7,9,9,13,13,14,14,15,15,17,17,19,19,20,20,21,21],"right_children":[2,4,6,8,-1,10,12,14,-1,16,-1,-1,-1,18,20,22,-1,24,-1,26,28,30,-1,-1,-1,-1,-1,-1,-1,-1,-1],"split_conditions":[1.0064671E0,1.0031663E0,2.3487944E-3,1.0000898E0,-1.7769893E-1,-8.526333E-3,9.500117E-1,1.0041906E0,1.6922878E-1,-1.4045746E-2,-1.8225694E-1,-1.4890724E-2,2.2926463E-1,3.3836424E0,-1.7522937E-3,1.0427601E0,2.2806454E-1,-4.031695E-3,6.952014E-2,2.5278366E0,3.2581985E0,3.1616015E0,1.0139201E-1,-3.1528822E-1,-4.9277958E-2,-6.412723E-2,1.5392032E-1,3.971609E-2,-8.0585934E-2,1.7148606E-2,-1.2387652E-1],"split_indices":[2,2,3,2,0,3,1,1,0,3,0,0,0,0,3,2,0,3,0,0,0,0,0,0,0,0,0,0,0,0,0],"split_type":[0,0,0,0,0,0,0,0,0,0,0,0,0,0,0,0,0,0,0,0,0,0,0,0,0,0,0,0,0,0,0],"sum_hessian":[4.3048E1,3.35361E1,9.5119E0,3.233182E1,1.2042793E0,6.38536E0,3.126541E0,3.0945932E1,1.3858885E0,4.352139E0,2.0332205E0,1.5080171E0,1.6185238E0,4.7778444E0,2.6168087E1,3.1824963E0,1.1696427E0,2.8585167E0,1.919328E0,6.282396E0,1.988569E1,2.1095636E0,1.0729326E0,1.4827803E0,1.3757362E0,1.8675643E0,4.4148316E0,9.243859E0,1.0641831E1,1.0258945E0,1.0836691E0],"tree_param":{"num_deleted":"0","num_feature":"4","num_nodes":"31","size_leaf_vector":"1"}},{"base_weights":[-3.2864744E-3,-6.245666E-2,1.1782017E-1,-3.388995E-1,1.06779225E-2,3.4237486E-1,-2.2753921E-1,-6.851756E-2,-2.4123114E-1,1.4335181E-1,-4.5746043E-2,-2.3107836E-1,5.725676E-1,-4.1567212E-1,8.6228564E-2,1.661939E-1,-4.341278E-1,-1.5020691E-1,1.640818E-1,-2.2062632E-1,9.503441E-2,2.185268E-1,2.8774196E-2,5.076011E-2,-2.3193416E-1,2.395486E-2,-2.0865183E-1,2.4380709E-1,-2.4320245E-1,-1.397458E-1,1.9757667E-1,-4.7338814E-2,6.801962E-2,-8.576301E-2,1.8662953E-1,2.7719034E-2,-9.847901E-2,6.2399678E-2,-1.6721226E-1],"categories":[],"categories_nodes":[],"categories_segments":[],"categories_sizes":[],"default_left":[0,0,0,0,0,0,0,0,0,0,0,0,0,0,0,0,0,0,0,0,0,0,0,0,0,0,0,0,0,0,0,0,0,0,0,0,0,0,0],"id":20,"left_children":[1,3,5,7,9,11,13,15,-1,-1,17,19,21,23,-1,-1,25,27,29,-1,-1,-1,-1,31,-1,-1,-1,33,35,37,-1,-1,-1,-1,-1,-1,-1,-1,-1],"loss_changes":[3.154351E-1,6.0073906E-1,1.1990906E0,7.259498E-1,6.630524E-1,1.3414859E0,7.295548E-1,1.3830483E0,0E0,0E0,5.2037334E-1,1.1548017E0,4.3707132E-1,8.763484E-1,0E0,0E0,5.5573446E-1,6.316901E-1,1.2932483E0,0E0,0E0,0E0,0E0,1.5016237E-1,0E0,0E0,0E0,8.7561613E-1,4.0540576E-1,9.5495397E-1,0E0,0E0,0E0,0E0,0E0,0E0,0E0,0E0,0E0],"parents":[2147483647,0,0,1,1,2,2,3,3,4,4,5,5,6,6,7,7,10,10,11,11,12,12,13,13,16,16,17,17,18,18,23,23,27,27,28,28,29,29],"right_children":[2,4,6,8,10,12,14,16,-1,-1,18,20,22,24,-1,-1,26,28,30,-1,-1,-1,-1,32,-1,-1,-1,34,36,38,-1,-1,-1,-1,-1,-1,-1,-1,-1],"split_conditions":[9.934595E-1,1.0090362E0,5.9281344E0,9.914484E-1,1.0135007E0,-1.4045746E-2,1.3224155E-2,2.2561315E-3,-2.4123114E-1,1.4335181E-1,5.4005833E0,1.0103861E0,1.0116918E0,-9.303688E-3,8.6228564E-2,1.661939E-1,9.953585E-1,1.6222931E0,9.651566E-1,-2.2062632E-1,9.503441E-2,2.185268E-1,2.8774196E-2,-3.024432E-2,-2.3193416E-1,2.395486E-2,-2.0865183E-1,1.3123454E0,9.636225E-1,9.575759E-1,1.9757667E-1,-4.7338814E-2,6.801962E-2,-8.576301E-2,1.8662953E-1,2.7719034E-2,-9.847901E-2,6.2399678E-2,-1.6721226E-1],"split_indices":[2,1,0,2,1,3,3,3,0,0,0,2,2,3,0,0,1,0,2,0,0,0,0,3,0,0,0,0,2,2,0,0,0,0,0,0,0,0,0],"split_type":[0,0,0,0,0,0,0,0,0,0,0,0,0,0,0,0,0,0,0,0,0,0,0,0,0,0,0,0,0,0,0,0,0,0,0,0,0,0,0],"sum_hessian":[4.1991993E1,2.8534779E1,1.3457214E1,5.209473E0,2.3325306E1,8.160108E0,5.2971077E0,4.020183E0,1.1892904E0,1.7087773E0,2.1616528E1,2.3362424E0,5.823865E0,4.0209537E0,1.276154E0,1.2968738E0,2.723309E0,1.4621493E1,6.9950347E0,1.0381764E0,1.298066E0,3.990771E0,1.8330939E0,2.1167536E0,1.9042001E0,1.1521711E0,1.5711379E0,2.4823377E0,1.2139156E1,4.777264E0,2.2177708E0,1.01596E0,1.1007935E0,1.136002E0,1.3463358E0,2.437197E0,9.70196E0,2.8806217E0,1.8966422E0],"tree_param":{"num_deleted":"0","num_feature":"4","num_nodes":"39","size_leaf_vector":"1"}},{"base_weights":[-1.5731548E-3,-2.7211946E-2,2.6607808E-1,8.414244E-3,-1.5090942E-1,-7.892568E-3,1.1569353E-1,-3.285468E-2,1.6457342E-1,1.6462488E-2,-2.9680455E-1,-1.461669E-1,1.6174963E-1,-5.935968E-1,7.8262605E-2,-7.702416E-2,1.06826544E-1,6.356834E-3,1.7246437E-1,-5.5954482E-2,-2.1380115E-1],"categories":[],"categories_nodes":[],"categories_segments":[],"categories_sizes":[],"default_left":[0,0,0,0,0,0,0,0,0,0,0,0,0,0,0,0,0,0,0,0,0],"id":21,"left_children":[1,3,5,7,-1,-1,-1,9,-1,11,13,15,17,19,-1,-1,-1,-1,-1,-1,-1],"loss_changes":[2.9258263E-1,6.628657E-1,1.4046681E-1,8.4574115E-1,0E0,0E0,0E0,4.662019E-1,0E0,7.515526E-1,1.0869737E0,9.2792404E-1,9.6024585E-1,6.0038567E-2,0E0,0E0,0E0,0E0,0E0,0E0,0E0],"parents":[2147483647,0,0,1,1,2,2,3,3,7,7,9,9,10,10,11,11,12,12,13,13],"right_children":[2,4,6,8,-1,-1,-1,10,-1,12,14,16,18,20,-1,-1,-1,-1,-1,-1,-1],"split_conditions":[1.0345094E0,1.0252815E0,-2.6758222E-2,1.0142066E0,-1.5090942E-1,-7.892568E-3,1.1569353E-1,9.519617E0,1.6457342E-1,2.7716873E0,1.6022831E1,8.061857E-3,9.8929584E-1,1.1191221E1,7.8262605E-2,-7.702416E-2,1.06826544E-1,6.356834E-3,1.7246437E-1,-5.5954482E-2,-2.1380115E-1],"split_indices":[2,2,3,2,0,0,0,0,0,0,0,3,2,0,0,0,0,0,0,0,0],"split_type":[0,0,0,0,0,0,0,0,0,0,0,0,0,0,0,0,0,0,0,0,0],"sum_hessian":[4.0581398E1,3.785366E1,2.727739E0,3.613075E1,1.7229133E0,1.0180902E0,1.7096487E0,3.4438774E1,1.6919721E0,2.980715E1,4.631625E0,1.406133E1,1.574582E1,2.9808428E0,1.6507821E0,1.1924709E1,2.1366212E0,1.2532995E1,3.2128246E0,1.2553859E0,1.725457E0],"tree_param":{"num_deleted":"0","num_feature":"4","num_nodes":"21","size_leaf_vector":"1"}},{"base_weights":[2.7574105E-3,2.3929674E-2,-9.3438506E-2,-7.6748966E-3,1.6170031E-1,1.9100932E-2,-1.4038594E-1,-2.513578E-1,5.1869188E-2,2.9600259E-2,-1.6186017E-1,1.7901061E-1,1.0164081E-2,-1.8203872E-1,1.6931096E-2],"categories":[],"categories_nodes":[],"categories_segments":[],"categories_sizes":[],"default_left":[0,0,0,0,0,0,0,0,0,0,0,0,0,0,0],"id":22,"left_children":[1,3,-1,5,-1,7,-1,9,11,-1,-1,-1,13,-1,-1],"loss_changes":[2.800079E-1,6.4406943E-1,0E0,4.775655E-1,0E0,3.400176E-1,0E0,4.7265863E-1,7.6051366E-1,0E0,0E0,0E0,9.5794266E-1,0E0,0E0],"parents":[2147483647,0,0,1,1,3,3,5,5,7,7,8,8,12,12],"right_children":[2,4,-1,6,-1,8,-1,10,12,-1,-1,-1,14,-1,-1],"split_conditions":[1.115068E0,1.087987E0,-9.3438506E-2,1.080235E0,1.6170031E-1,9.600583E-1,-1.4038594E-1,9.569562E-1,9.6213466E-1,2.9600259E-2,-1.6186017E-1,1.7901061E-1,9.658419E-1,-1.8203872E-1,1.6931096E-2],"split_indices":[1,1,0,1,0,2,0,2,2,0,0,0,2,0,0],"split_type":[0,0,0,0,0,0,0,0,0,0,0,0,0,0,0],"sum_hessian":[3.9968853E1,3.8311264E1,1.6575909E0,3.702455E1,1.2867124E0,3.589493E1,1.1296196E0,3.1581116E0,3.273682E1,1.7229681E0,1.4351435E0,1.3814887E0,3.1355331E1,1.3424842E0,3.0012848E1],"tree_param":{"num_deleted":"0","num_feature":"4","num_nodes":"15","size_leaf_vector":"1"}},{"base_weights":[-2.9118187E-3,-2.2735862E-2,8.897374E-2,4.711382E-3,-1.3562772E-1,-2.3444409E-2,1.3873197E-1,4.094848E-2,-2.817582E-1,-4.203154E-2,3.3441812E-1,9.782465E-2,-4.6968168E-1,-2.982618E-2,1.2892626E-1,1.4287008E-1,-5.155702E-3,-1.8096209E-2,6.7263916E-2,-2.0072483E-1,-5.509051E-2],"categories":[],"categories_nodes":[],"categories_segments":[],"categories_sizes":[],"default_left":[0,0,0,0,0,0,0,0,0,0,0,0,0,0,0,0,0,0,0,0,0],"id":23,"left_children":[1,3,-1,5,-1,7,-1,9,11,13,15,17,19,-1,-1,-1,-1,-1,-1,-1,-1],"loss_changes":[2.4728379E-1,4.6088576E-1,0E0,4.9514768E-1,0E0,6.1621857E-1,0E0,7.439444E-1,5.7243615E-1,6.9940865E-1,3.431819E-1,7.891832E-2,1.6854513E-1,0E0,0E0,0E0,0E0,0E0,0E0,0E0,0E0],"parents":[2147483647,0,0,1,1,3,3,5,5,7,7,8,8,9,9,10,10,11,11,12,12],"right_children":[2,4,-1,6,-1,8,-1,10,12,14,16,18,20,-1,-1,-1,-1,-1,-1,-1,-1],"split_conditions":[4.0594406E-2,1.115068E0,8.897374E-2,1.087987E0,-1.3562772E-1,6.8987727E0,1.3873197E-1,4.2819257E0,-1.0797763E-2,1.6460681E-2,1.1122625E-2,1.0541465E1,4.7929697E-3,-2.982618E-2,1.2892626E-1,1.4287008E-1,-5.155702E-3,-1.8096209E-2,6.7263916E-2,-2.0072483E-1,-5.509051E-2],"split_indices":[3,1,0,1,0,0,0,0,3,3,3,0,3,0,0,0,0,0,0,0,0],"split_type":[0,0,0,0,0,0,0,0,0,0,0,0,0,0,0,0,0,0,0,0,0],"sum_hessian":[3.9514717E1,3.7928238E1,1.5864785E0,3.6578907E1,1.3493333E0,3.535305E1,1.2258555E0,2.8972271E1,6.380779E0,2.3253893E1,5.7183785E0,2.271688E0,4.109091E0,2.1435677E1,1.8182155E0,3.822254E0,1.8961244E0,1.2412684E0,1.0304195E0,1.6322165E0,2.4768744E0],"tree_param":{"num_deleted":"0","num_feature":"4","num_nodes":"21","size_leaf_vector":"1"}},{"base_weights":[1.1255994E-3,2.7511787E-1,-2.2810517E-2,1.4715143E-1,-2.1193637E-2,-3.0965286E-1,1.2237352E-2,7.1419515E-2,-2.2816576E-1,-9.1219984E-2,9.365013E-2,-3.3970472E-1,3.655381E-2,5.0783885E-1,-3.0759033E-2,-5.966827E-1,1.00147985E-1,3.454228E-1,-1.6725338E-1,2.3398593E-1,1.8592437E-1,-9.5417E-2,1.4139883E-1,-7.628358E-2,-2.4814281E-1,1.7848295E-1,-8.3571434E-2,3.9284144E-2,-1.8072294E-1,-3.4524962E-2,1.2536766E-1,-1.284145E-1,9.649243E-3],"categories":[],"categories_nodes":[],"categories_segments":[],"categories_sizes":[],"default_left":[0,0,0,0,0,0,0,0,0,0,0,0,0,0,0,0,0,0,0,0,0,0,0,0,0,0,0,0,0,0,0,0,0],"id":24,"left_children":[1,3,5,-1,-1,7,9,-1,-1,11,13,15,17,19,21,23,-1,25,27,-1,29,31,-1,-1,-1,-1,-1,-1,-1,-1,-1,-1,-1],"loss_changes":[2.6895544E-1,2.8000233E-1,3.8338333E-1,0E0,0E0,1.2057753E0,3.0004796E-1,0E0,0E0,5.124057E-1,1.0390625E0,1.1416125E0,7.692817E-1,2.6186657E-1,5.7143074E-1,1.2898755E-1,0E0,9.161279E-1,1.0499457E0,0E0,2.8833753E-1,6.587412E-1,0E0,0E0,0E0,0E0,0E0,0E0,0E0,0E0,0E0,0E0,0E0],"parents":[2147483647,0,0,1,1,2,2,5,5,6,6,9,9,10,10,11,11,12,12,13,13,14,14,15,15,17,17,18,18,20,20,21,21],"right_children":[2,4,6,-1,-1,8,10,-1,-1,12,14,16,18,20,22,24,-1,26,28,-1,30,32,-1,-1,-1,-1,-1,-1,-1,-1,-1,-1,-1],"split_conditions":[1.3058618E0,9.914484E-1,1.5656247E0,1.4715143E-1,-2.1193637E-2,4.9820836E-3,2.1646428E-3,7.1419515E-2,-2.2816576E-1,2.7716873E0,2.566029E0,1.0000898E0,4.620285E0,1.0161229E0,1.3870263E1,9.902998E-1,1.00147985E-1,1.0072259E0,-5.9680957E-3,2.3398593E-1,2.0044875E0,9.6122295E-1,1.4139883E-1,-7.628358E-2,-2.4814281E-1,1.7848295E-1,-8.3571434E-2,3.9284144E-2,-1.8072294E-1,-3.4524962E-2,1.2536766E-1,-1.284145E-1,9.649243E-3],"split_indices":[0,2,0,0,0,3,3,0,0,0,0,2,0,1,0,2,0,2,3,0,0,2,0,0,0,0,0,0,0,0,0,0,0],"split_type":[0,0,0,0,0,0,0,0,0,0,0,0,0,0,0,0,0,0,0,0,0,0,0,0,0,0,0,0,0,0,0,0,0],"sum_hessian":[3.9052975E1,2.2944934E0,3.675848E1,1.1558588E0,1.1386346E0,3.1492147E0,3.3609264E1,1.6350749E0,1.5141398E0,1.4747741E1,1.8861525E1,4.444933E0,1.0302808E1,3.644866E0,1.5216659E1,3.299967E0,1.1449656E0,3.8195076E0,6.4833E0,1.2041445E0,2.4407213E0,1.4198202E1,1.0184569E0,2.1737247E0,1.1262424E0,2.761719E0,1.0577887E0,4.2618523E0,2.221448E0,1.2815852E0,1.159136E0,3.28317E0,1.0915031E1],"tree_param":{"num_deleted":"0","num_feature":"4","num_nodes":"33","size_leaf_vector":"1"}},{"base_weights":[2.407348E-3,-8.500236E-2,2.0679025E-2,-2.7531164E-3,1.0208503E-1,2.7770216E-2,-1.22699805E-1,-8.442294E-3,1.4797683E-1,-1.745262E-1,6.8140574E-2,-5.8903038E-3,-1.2703381E-1,3.8817548E-3,1.443905E-1],"categories":[],"categories_nodes":[],"categories_segments":[],"categories_sizes":[],"default_left":[0,0,0,0,0,0,0,0,0,0,0,0,0,0,0],"id":25,"left_children":[1,-1,3,5,-1,7,-1,9,-1,11,13,-1,-1,-1,-1],"loss_changes":[2.0955664E-1,0E0,2.8253466E-1,4.5806688E-1,0E0,5.847629E-1,0E0,4.308725E-1,0E0,4.0332696E-1,5.24362E-1,0E0,0E0,0E0,0E0],"parents":[2147483647,0,0,2,2,3,3,5,5,7,7,9,9,10,10],"right_children":[2,-1,4,6,-1,8,-1,10,-1,12,14,-1,-1,-1,-1],"split_conditions":[-3.024432E-2,-8.500236E-2,1.0345094E0,1.0252815E0,1.0208503E-1,1.0142066E0,-1.22699805E-1,1.0090362E0,1.4797683E-1,1.0027943E0,9.906823E-1,-5.8903038E-3,-1.2703381E-1,3.8817548E-3,1.443905E-1],"split_indices":[3,0,2,2,0,2,0,1,0,1,2,0,0,0,0],"split_type":[0,0,0,0,0,0,0,0,0,0,0,0,0,0,0],"sum_hessian":[3.8014233E1,1.4127821E0,3.660145E1,3.5024944E1,1.576506E0,3.3443787E1,1.5811589E0,3.1940813E1,1.5029745E0,9.676543E0,2.2264269E1,6.629916E0,3.0466273E0,2.054996E1,1.7143097E0],"tree_param":{"num_deleted":"0","num_feature":"4","num_nodes":"15","size_leaf_vector":"1"}},{"base_weights":[3.4644823E-3,2.448485E-1,-1.7956432E-2,1.2512282E-1,-1.0004885E-2,-2.651457E-1,1.2227791E-2,5.8318514E-2,-1.9385168E-1,-1.0649547E-1,8.3595395E-2,3.2226632E-3,-1.7939982E-1,3.655785E-1,-8.284294E-2,-1.4819743E-1,1.362265E-1,5.6379604E-1,7.029005E-2,2.2011665E-1,-1.8172951E-1,1.059119E-1,-3.4043442E-2,2.9765511E-2,2.0028128E-1,1.2418291E-1,-5.522446E-2,1.710631E-1,-1.11866675E-1,-1.4499879E-1,1.7235434E-2],"categories":[],"categories_nodes":[],"categories_segments":[],"categories_sizes":[],"default_left":[0,0,0,0,0,0,0,0,0,0,0,0,0,0,0,0,0,0,0,0,0,0,0,0,0,0,0,0,0,0,0],"id":26,"left_children":[1,3,5,-1,-1,7,9,-1,-1,11,13,15,-1,17,19,-1,21,23,25,27,29,-1,-1,-1,-1,-1,-1,-1,-1,-1,-1],"loss_changes":[2.0415188E-1,1.6805652E-1,2.7494377E-1,0E0,0E0,8.271998E-1,2.9197133E-1,0E0,0E0,7.0203733E-1,1.0358573E0,8.34948E-1,0E0,4.3665445E-1,4.680666E-1,0E0,5.7831705E-1,1.6170478E-1,4.617689E-1,1.0364879E0,8.4437E-1,0E0,0E0,0E0,0E0,0E0,0E0,0E0,0E0,0E0,0E0],"parents":[2147483647,0,0,1,1,2,2,5,5,6,6,9,9,10,10,11,11,13,13,14,14,16,16,17,17,18,18,19,19,20,20],"right_children":[2,4,6,-1,-1,8,10,-1,-1,12,14,16,-1,18,20,-1,22,24,26,28,30,-1,-1,-1,-1,-1,-1,-1,-1,-1,-1],"split_conditions":[1.3058618E0,9.914484E-1,1.5656247E0,1.2512282E-1,-1.0004885E-2,4.9820836E-3,9.236077E-5,5.8318514E-2,-1.9385168E-1,-1.7522937E-3,3.1918392E0,2.298934E0,-1.7939982E-1,9.8677903E-1,9.942902E-1,-1.4819743E-1,1.0001655E0,1.9344542E0,2.0792584E0,9.92282E0,1.0384736E0,1.059119E-1,-3.4043442E-2,2.9765511E-2,2.0028128E-1,1.2418291E-1,-5.522446E-2,1.710631E-1,-1.11866675E-1,-1.4499879E-1,1.7235434E-2],"split_indices":[0,2,0,0,0,3,3,0,0,3,0,0,0,2,1,0,2,0,0,0,1,0,0,0,0,0,0,0,0,0,0],"split_type":[0,0,0,0,0,0,0,0,0,0,0,0,0,0,0,0,0,0,0,0,0,0,0,0,0,0,0,0,0,0,0],"sum_hessian":[3.7632404E1,2.2172067E0,3.54152E1,1.0610961E0,1.1561108E0,3.006844E0,3.240835E1,1.5850236E0,1.4218204E0,1.1982578E1,2.0425776E1,1.0608003E1,1.374575E0,7.137241E0,1.3288535E1,1.6659595E0,8.942043E0,3.7264738E0,3.410767E0,2.9683685E0,1.0320167E1,4.564745E0,4.3772984E0,1.0377896E0,2.6886842E0,1.1839494E0,2.2268176E0,1.8906329E0,1.0777357E0,4.113014E0,6.207152E0],"tree_param":{"num_deleted":"0","num_feature":"4","num_nodes":"31","size_leaf_vector":"1"}},{"base_weights":[1.8617621E-3,3.9359897E-2,-1.3623457E-1,2.0063685E-1,-4.3457814E-2,-4.515059E-1,1.2498101E-1,-8.087559E-2,4.7669584E-1,-3.899341E-1,6.601504E-2,9.904724E-3,-2.0956914E-1,1.1976454E-1,-1.2113319E-1,-1.1168148E-1,1.5374519E-1,1.8291588E-1,2.1098183E-1,1.9350724E-2,-6.370158E-1,1.9606942E-1,-2.2501747E-1,-1.22907154E-1,8.690833E-2,1.393932E-1,-6.0145143E-2,-3.285816E-2,1.4200966E-1,-6.4643316E-2,-2.3244889E-1,-6.5505534E-2,2.9819652E-1,-1.6215684E-1,2.496144E-2,1.6833879E-2,1.4169762E-1,-8.879518E-2,8.3545715E-2],"categories":[],"categories_nodes":[],"categories_segments":[],"categories_sizes":[],"default_left":[0,0,0,0,0,0,0,0,0,0,0,0,0,0,0,0,0,0,0,0,0,0,0,0,0,0,0,0,0,0,0,0,0,0,0,0,0,0,0],"id":27,"left_children":[1,3,5,7,9,11,13,15,17,19,21,-1,-1,-1,23,-1,25,27,-1,-1,29,31,33,-1,-1,-1,-1,-1,-1,-1,-1,-1,35,-1,37,-1,-1,-1,-1],"loss_changes":[2.0083632E-1,4.1560125E-1,7.387547E-1,8.556143E-1,8.203442E-1,4.9841142E-1,4.0703535E-1,4.7156832E-1,2.3435307E-1,6.221192E-1,6.7903984E-1,0E0,0E0,0E0,5.416557E-1,0E0,5.4082596E-1,3.6833555E-1,0E0,0E0,3.3120155E-2,5.784169E-1,4.5883298E-1,0E0,0E0,0E0,0E0,0E0,0E0,0E0,0E0,0E0,4.0148127E-1,0E0,4.165447E-1,0E0,0E0,0E0,0E0],"parents":[2147483647,0,0,1,1,2,2,3,3,4,4,5,5,6,6,7,7,8,8,9,9,10,10,14,14,16,16,17,17,20,20,21,21,22,22,32,32,34,34],"right_children":[2,4,6,8,10,12,14,16,18,20,22,-1,-1,-1,24,-1,26,28,-1,-1,30,32,34,-1,-1,-1,-1,-1,-1,-1,-1,-1,36,-1,38,-1,-1,-1,-1],"split_conditions":[1.0511038E0,9.825386E-1,5.4005833E0,9.730628E-1,9.884383E-1,9.636225E-1,7.861268E0,5.2660755E-3,3.3988717E0,3.6626684E-3,5.9281344E0,9.904724E-3,-2.0956914E-1,1.1976454E-1,1.6022831E1,-1.1168148E-1,3.2581985E0,1.0252976E0,2.1098183E-1,1.9350724E-2,9.84459E-1,-1.4045746E-2,8.521319E0,-1.22907154E-1,8.690833E-2,1.393932E-1,-6.0145143E-2,-3.285816E-2,1.4200966E-1,-6.4643316E-2,-2.3244889E-1,-6.5505534E-2,9.934595E-1,-1.6215684E-1,1.0151654E0,1.6833879E-2,1.4169762E-1,-8.879518E-2,8.3545715E-2],"split_indices":[1,2,0,2,2,2,0,3,0,3,0,0,0,0,0,0,0,1,0,0,2,3,0,0,0,0,0,0,0,0,0,0,2,0,2,0,0,0,0],"split_type":[0,0,0,0,0,0,0,0,0,0,0,0,0,0,0,0,0,0,0,0,0,0,0,0,0,0,0,0,0,0,0,0,0,0,0,0,0,0,0],"sum_hessian":[3.674831E1,2.9463018E1,7.2852907E0,9.513689E0,1.994933E1,2.970997E0,4.3142934E0,5.060379E0,4.4533095E0,4.174696E0,1.5774633E1,1.2958951E0,1.6751021E0,1.7463456E0,2.5679476E0,1.9954102E0,3.0649688E0,2.726033E0,1.7272768E0,1.7306327E0,2.4440632E0,1.1128094E1,4.64654E0,1.5100712E0,1.0578766E0,1.4663136E0,1.5986552E0,1.6687422E0,1.0572907E0,1.2337801E0,1.210283E0,1.9751405E0,9.152953E0,1.5402609E0,3.1062791E0,4.382461E0,4.770492E0,1.2969484E0,1.8093307E0],"tree_param":{"num_deleted":"0","num_feature":"4","num_nodes":"39","size_leaf_vector":"1"}},{"base_weights":[-3.2855435E-3,-1.349565E-1,3.7844043E-2,3.0534796E-2,-1.906901E-1,-1.2416175E-2,1.4780915E-1,3.6409086E-1,-1.6762693E-1,1.73429E-1,-9.209496E-2,1.4572854E-1,2.4225594E-2,1.14439614E-1,-1.4570178E-1,3.8916358E-1,-2.1808021E-1,3.4281053E-2,-3.604562E-1,1.0417832E-1,-4.982825E-2,8.786864E-2,1.9974728E-1,-1.1087865E-1,1.8658092E-2,-1.6398457E-1,2.2130844E-1,8.677928E-2,-2.0171604E-1,-6.534462E-2,1.3707004E-1,-1.0940156E-1,9.35376E-2,-4.1949432E-2,1.1484234E-1,1.1120227E-1,-8.929607E-2],"categories":[],"categories_nodes":[],"categories_segments":[],"categories_sizes":[],"default_left":[0,0,0,0,0,0,0,0,0,0,0,0,0,0,0,0,0,0,0,0,0,0,0,0,0,0,0,0,0,0,0,0,0,0,0,0,0],"id":28,"left_children":[1,3,5,7,-1,9,-1,11,13,15,17,-1,-1,19,-1,21,23,25,27,-1,-1,29,-1,-1,-1,31,33,35,-1,-1,-1,-1,-1,-1,-1,-1,-1],"loss_changes":[2.0218077E-1,7.552272E-1,6.5787685E-1,5.652637E-1,0E0,4.1057733E-1,0E0,6.965265E-2,5.463183E-1,7.895775E-1,6.670673E-1,0E0,0E0,2.998908E-1,0E0,4.1983116E-1,1.7607762E-1,5.5681586E-1,9.3267983E-1,0E0,0E0,5.3935E-1,0E0,0E0,0E0,8.1916326E-1,4.996516E-1,4.8804373E-1,0E0,0E0,0E0,0E0,0E0,0E0,0E0,0E0,0E0],"parents":[2147483647,0,0,1,1,2,2,3,3,5,5,7,7,8,8,9,9,10,10,13,13,15,15,16,16,17,17,18,18,21,21,25,25,26,26,27,27],"right_children":[2,4,6,8,-1,10,-1,12,14,16,18,-1,-1,20,-1,22,24,26,28,-1,-1,30,-1,-1,-1,32,34,36,-1,-1,-1,-1,-1,-1,-1,-1,-1],"split_conditions":[9.672691E-1,9.6377677E-1,2.3445394E-2,4.3876257E0,-1.906901E-1,9.825386E-1,1.4780915E-1,6.1559007E-3,9.575759E-1,1.0431774E0,4.6020867E-3,1.4572854E-1,2.4225594E-2,1.9185983E-2,-1.4570178E-1,1.0252976E0,3.7298572E0,9.9366516E-1,1.0027943E0,1.0417832E-1,-4.982825E-2,9.8087674E-1,1.9974728E-1,-1.1087865E-1,1.8658092E-2,1.0310627E0,-5.3634085E-3,1.1748063E-2,-2.0171604E-1,-6.534462E-2,1.3707004E-1,-1.0940156E-1,9.35376E-2,-4.1949432E-2,1.1484234E-1,1.1120227E-1,-8.929607E-2],"split_indices":[2,2,3,0,0,2,0,3,2,1,3,0,0,3,0,1,0,1,1,0,0,2,0,0,0,2,3,3,0,0,0,0,0,0,0,0,0],"split_type":[0,0,0,0,0,0,0,0,0,0,0,0,0,0,0,0,0,0,0,0,0,0,0,0,0,0,0,0,0,0,0,0,0,0,0,0,0],"sum_hessian":[3.539015E1,7.8805037E0,2.7509644E1,6.6285496E0,1.2519542E0,2.5648272E1,1.861372E0,2.1582797E0,4.4702697E0,7.3434916E0,1.8304781E1,1.010103E0,1.1481766E0,2.70842E0,1.7618498E0,4.738443E0,2.6050484E0,1.3037467E1,5.267314E0,1.3500905E0,1.3583294E0,2.8989596E0,1.8394834E0,1.4840702E0,1.1209782E0,6.3884006E0,6.6490664E0,2.460842E0,2.806472E0,1.8096865E0,1.089273E0,4.65739E0,1.7310107E0,2.0960689E0,4.5529976E0,1.4361024E0,1.0247396E0],"tree_param":{"num_deleted":"0","num_feature":"4","num_nodes":"37","size_leaf_vector":"1"}},{"base_weights":[6.4805726E-4,-2.5944376E-1,2.5466355E-2,-1.71586E-1,5.1178504E-2,1.5564193E-1,-1.0653317E-2,-2.6362413E-1,3.4765948E-2,8.235288E-2,-1.8750937E-1,-2.5915153E-2,3.5195827E-1,1.1755556E-1,-7.785795E-2,1.3196836E-2,-1.18219696E-1,5.865888E-2,1.7922673E-1,7.049471E-2,-2.4897778E-2,7.058585E-2,-4.8308115E-2],"categories":[],"categories_nodes":[],"categories_segments":[],"categories_sizes":[],"default_left":[0,0,0,0,0,0,0,0,0,0,0,0,0,0,0,0,0,0,0,0,0,0,0],"id":29,"left_children":[1,3,5,-1,-1,-1,7,9,11,13,-1,15,17,-1,-1,19,-1,21,-1,-1,-1,-1,-1],"loss_changes":[2.3371021E-1,5.214542E-1,5.940663E-1,0E0,0E0,0E0,3.7402123E-1,6.704225E-1,5.442973E-1,4.62788E-1,0E0,3.5468394E-1,2.9135334E-1,0E0,0E0,5.082055E-1,0E0,1.6106354E-1,0E0,0E0,0E0,0E0,0E0],"parents":[2147483647,0,0,1,1,2,2,6,6,7,7,8,8,9,9,11,11,12,12,15,15,17,17],"right_children":[2,4,6,-1,-1,-1,8,10,12,14,-1,16,18,-1,-1,20,-1,22,-1,-1,-1,-1,-1],"split_conditions":[9.514526E-1,1.3673961E1,9.575759E-1,-1.71586E-1,5.1178504E-2,1.5564193E-1,9.658419E-1,1.3704309E-2,1.425413E-2,4.3876257E0,-1.8750937E-1,1.0654467E0,1.0041906E0,1.1755556E-1,-7.785795E-2,9.8387945E-1,-1.18219696E-1,9.8307484E-1,1.7922673E-1,7.049471E-2,-2.4897778E-2,7.058585E-2,-4.8308115E-2],"split_indices":[2,0,2,0,0,0,2,3,3,0,0,1,1,0,0,2,0,1,0,0,0,0,0],"split_type":[0,0,0,0,0,0,0,0,0,0,0,0,0,0,0,0,0,0,0,0,0,0,0],"sum_hessian":[3.4182316E1,2.1540878E0,3.202823E1,1.056398E0,1.0976897E0,1.2733024E0,3.0754925E1,3.9500685E0,2.6804857E1,2.4126031E0,1.5374653E0,2.327121E1,3.533646E0,1.1895496E0,1.2230536E0,2.1907888E1,1.3633215E0,2.1744351E0,1.359211E0,6.190784E0,1.5717105E1,1.1659783E0,1.008457E0],"tree_param":{"num_deleted":"0","num_feature":"4","num_nodes":"23","size_leaf_vector":"1"}},{"base_weights":[1.0080318E-3,1.255293E-1,-4.089163E-2,-6.7031E-2,2.1180168E-1,-1.5569265E-1,7.3973484E-2,2.3518255E-2,1.4421025E-1,-2.170444E-2,-2.0599528E-1,3.9094743E-1,-9.0417154E-2,-1.4137968E-1,2.4111132E-1,-1.7378555E-1,1.5782301E-1,-1.2076744E-2,5.324425E-1,-3.247991E-1,8.30105E-2,-2.1311253E-2,1.1307392E-1,8.574405E-2,-4.950683E-1,2.1869871E-1,4.214916E-2,9.440738E-3,-1.5780321E-1,1.5080477E-1,-1.11617625E-1,2.4091364E-1,-7.8494176E-2,-2.991687E-2,-1.9852616E-1,-1.02282114E-1,7.079239E-2],"categories":[],"categories_nodes":[],"categories_segments":[],"categories_sizes":[],"default_left":[0,0,0,0,0,0,0,0,0,0,0,0,0,0,0,0,0,0,0,0,0,0,0,0,0,0,0,0,0,0,0,0,0,0,0,0,0],"id":30,"left_children":[1,3,5,-1,7,9,11,13,-1,15,-1,17,19,-1,21,23,-1,-1,25,27,29,-1,-1,31,33,-1,-1,-1,-1,-1,35,-1,-1,-1,-1,-1,-1],"loss_changes":[1.8550675E-1,3.16767E-1,3.62569E-1,0E0,3.779892E-1,9.552411E-1,7.640773E-1,7.137242E-1,0E0,1.0845724E0,0E0,3.242957E-1,4.3430716E-1,0E0,2.1892723E-1,8.8316375E-1,0E0,0E0,1.9092059E-1,3.3664492E-1,5.916004E-1,0E0,0E0,1.8122939E0,2.4062932E-1,0E0,0E0,0E0,0E0,0E0,5.0269383E-1,0E0,0E0,0E0,0E0,0E0,0E0],"parents":[2147483647,0,0,1,1,2,2,4,4,5,5,6,6,7,7,9,9,11,11,12,12,14,14,15,15,18,18,19,19,20,20,23,23,24,24,30,30],"right_children":[2,4,6,-1,8,10,12,14,-1,16,-1,18,20,-1,22,24,-1,-1,26,28,30,-1,-1,32,34,-1,-1,-1,-1,-1,36,-1,-1,-1,-1,-1,-1],"split_conditions":[-5.9680957E-3,-3.024432E-2,5.2660755E-3,-6.7031E-2,1.0103861E0,4.6020867E-3,3.2581985E0,9.893889E-1,1.4421025E-1,3.0961554E-3,-2.0599528E-1,1.5656247E0,4.985769E0,-1.4137968E-1,-1.494737E-2,1.0185026E0,1.5782301E-1,-1.2076744E-2,1.023244E0,3.5439036E0,1.1748063E-2,-2.1311253E-2,1.1307392E-1,9.8947144E-1,-1.7522937E-3,2.1869871E-1,4.214916E-2,9.440738E-3,-1.5780321E-1,1.5080477E-1,3.251874E-2,2.4091364E-1,-7.8494176E-2,-2.991687E-2,-1.9852616E-1,-1.02282114E-1,7.079239E-2],"split_indices":[3,3,3,0,2,3,0,1,0,3,0,0,0,0,3,1,0,0,1,0,3,0,0,2,3,0,0,0,0,0,3,0,0,0,0,0,0],"split_type":[0,0,0,0,0,0,0,0,0,0,0,0,0,0,0,0,0,0,0,0,0,0,0,0,0,0,0,0,0,0,0,0,0,0,0,0,0],"sum_hessian":[3.3571564E1,7.9497657E0,2.5621798E1,1.2606444E0,6.6891212E0,1.2636704E1,1.2985094E1,4.57392E0,2.1152017E0,1.0921518E1,1.715186E0,3.963879E0,9.0212145E0,1.0409948E0,3.532925E0,9.082641E0,1.8388779E0,1.1561214E0,2.8077579E0,3.4652364E0,5.555978E0,1.2156287E0,2.317296E0,5.429696E0,3.6529448E0,1.2972629E0,1.510495E0,1.5551924E0,1.9100441E0,1.2588229E0,4.297155E0,1.3436506E0,4.0860453E0,1.55739E0,2.0955548E0,2.6005733E0,1.6965818E0],"tree_param":{"num_deleted":"0","num_feature":"4","num_nodes":"37","size_leaf_vector":"1"}},{"base_weights":[5.639088E-3,-6.302744E-2,2.588061E-2,1.3694371E-1,-6.0529895E-3,-2.4522048E-1,3.6960576E-2,3.8838018E-2,-1.511252E-1,-1.5976282E-2,3.1913835E-1,-5.112848E-2,9.075159E-2,7.9702E-2,1.5607019E-1,-5.929632E-4,-1.4594077E-1,5.8396097E-2,-2.3606269E-2],"categories":[],"categories_nodes":[],"categories_segments":[],"categories_sizes":[],"default_left":[0,0,0,0,0,0,0,0,0,0,0,0,0,0,0,0,0,0,0],"id":31,"left_children":[1,-1,3,-1,5,7,9,-1,-1,11,13,15,-1,17,-1,-1,-1,-1,-1],"loss_changes":[1.5217608E-1,0E0,4.37442E-1,0E0,3.2196796E-1,5.270146E-1,4.0316722E-1,0E0,0E0,2.7734178E-1,1.6352269E-1,4.6811572E-1,0E0,7.2201416E-2,0E0,0E0,0E0,0E0,0E0],"parents":[2147483647,0,0,2,2,4,4,5,5,6,6,9,9,10,10,11,11,13,13],"right_children":[2,-1,4,-1,6,8,10,-1,-1,12,14,16,-1,18,-1,-1,-1,-1,-1],"split_conditions":[9.514526E-1,-6.302744E-2,9.575759E-1,1.3694371E-1,9.672691E-1,4.3876257E0,1.425413E-2,3.8838018E-2,-1.511252E-1,1.0541465E1,1.0041906E0,1.0470369E0,9.075159E-2,9.71493E-1,1.5607019E-1,-5.929632E-4,-1.4594077E-1,5.8396097E-2,-2.3606269E-2],"split_indices":[2,0,2,0,2,0,3,0,0,0,1,1,0,1,0,0,0,0,0],"split_type":[0,0,0,0,0,0,0,0,0,0,0,0,0,0,0,0,0,0,0],"sum_hessian":[3.260393E1,1.9921988E0,3.061173E1,1.195587E0,2.9416143E1,3.7673907E0,2.5648754E1,1.7420018E0,2.025389E0,2.2391472E1,3.257282E0,2.0921713E1,1.469759E0,2.1243014E0,1.1329808E0,1.9701826E1,1.2198853E0,1.0982722E0,1.0260291E0],"tree_param":{"num_deleted":"0","num_feature":"4","num_nodes":"19","size_leaf_vector":"1"}},{"base_weights":[6.8313926E-3,6.463529E-2,-1.3087294E-2,-2.4783348E-1,2.8324788E-2,-1.2795235E-1,1.3489031E-2,2.7959836E-1,-1.32100545E-2,1.7925763E-1,-3.469626E-2,-9.628839E-2,1.3165031E-1,-9.900047E-3,-4.2651987E-1,-5.3231563E-2,3.7664428E-1,1.24781825E-1,-2.3250379E-2,-1.6857521E-1,-3.161205E-2,-1.2266388E-1,5.1614616E-2,1.9125065E-1,-3.511906E-2],"categories":[],"categories_nodes":[],"categories_segments":[],"categories_sizes":[],"default_left":[0,0,0,0,0,0,0,0,0,0,0,0,0,0,0,0,0,0,0,0,0,0,0,0,0],"id":32,"left_children":[1,-1,3,5,7,-1,-1,9,11,-1,-1,13,15,17,19,21,23,-1,-1,-1,-1,-1,-1,-1,-1],"loss_changes":[1.4059597E-1,0E0,3.1041008E-1,2.6937824E-1,2.899297E-1,0E0,0E0,5.636488E-1,3.0741552E-1,0E0,0E0,4.5627743E-1,4.4349828E-1,4.3003532E-1,8.529645E-2,5.674278E-1,6.083933E-1,0E0,0E0,0E0,0E0,0E0,0E0,0E0,0E0],"parents":[2147483647,0,0,2,2,3,3,4,4,7,7,8,8,11,11,12,12,13,13,14,14,15,15,16,16],"right_children":[2,-1,4,6,8,-1,-1,10,12,-1,-1,14,16,18,20,22,24,-1,-1,-1,-1,-1,-1,-1,-1],"split_conditions":[1.3058618E0,6.463529E-2,1.8042978E0,1.0153288E0,2.2067013E0,-1.2795235E-1,1.3489031E-2,1.0144478E0,1.0359529E0,1.7925763E-1,-3.469626E-2,1.0218505E0,9.651566E-1,9.812086E-1,3.4062788E0,1.0624429E0,1.0654467E0,1.24781825E-1,-2.3250379E-2,-1.6857521E-1,-3.161205E-2,-1.2266388E-1,5.1614616E-2,1.9125065E-1,-3.511906E-2],"split_indices":[0,0,0,1,0,0,0,1,1,0,0,1,2,2,0,1,1,0,0,0,0,0,0,0,0],"split_type":[0,0,0,0,0,0,0,0,0,0,0,0,0,0,0,0,0,0,0,0,0,0,0,0,0],"sum_hessian":[3.2155743E1,1.947017E0,3.0208727E1,3.782559E0,2.6426168E1,2.065472E0,1.717087E0,2.935514E0,2.3490654E1,1.3432753E0,1.5922385E0,1.5141952E1,8.348702E0,1.2818594E1,2.3233569E0,5.2041636E0,3.1445389E0,1.0502061E0,1.1768389E1,1.1069399E0,1.216417E0,1.7020967E0,3.5020669E0,1.8668875E0,1.2776514E0],"tree_param":{"num_deleted":"0","num_feature":"4","num_nodes":"25","size_leaf_vector":"1"}},{"base_weights":[8.059671E-3,2.7957821E-2,-1.7749527E-1,-2.9610634E-2,1.21180825E-1,-1.22789636E-1,4.582821E-2,-1.279117E-1,2.5796974E-1,2.5748476E-1,-9.229808E-2,-1.9222239E-1,1.0815746E-1,-4.8405517E-2,4.2644876E-1,5.141115E-1,-2.9082942E-1,1.5726784E-1,-2.971792E-1,-4.9587768E-1,-9.783559E-2,2.2860223E-1,-3.0124854E-2,2.1163136E-1,2.442677E-1,-1.0971733E-1,-2.1461524E-2,-2.0314013E-3,7.378395E-2,-1.408653E-1,1.2247624E-2,-2.1432208E-1,-5.9337663E-3,2.3559796E-2,-8.48656E-2,-1.1174105E-2,1.1997616E-1],"categories":[],"categories_nodes":[],"categories_segments":[],"categories_sizes":[],"default_left":[0,0,0,0,0,0,0,0,0,0,0,0,0,0,0,0,0,0,0,0,0,0,0,0,0,0,0,0,0,0,0,0,0,0,0,0,0],"id":33,"left_children":[1,3,5,7,9,-1,-1,11,13,15,17,19,-1,-1,21,23,25,27,29,31,33,-1,-1,-1,35,-1,-1,-1,-1,-1,-1,-1,-1,-1,-1,-1,-1],"loss_changes":[1.2530491E-1,1.6620441E-1,3.1460208E-1,5.852814E-1,3.6608946E-1,0E0,0E0,5.4764277E-1,4.4382077E-1,1.1969757E0,3.187832E-1,3.5585392E-1,0E0,0E0,7.945284E-1,1.08130455E-1,2.3304135E-2,4.6071284E-2,2.0956638E-1,3.0837268E-1,4.141483E-1,0E0,0E0,0E0,1.8067305E-1,0E0,0E0,0E0,0E0,0E0,0E0,0E0,0E0,0E0,0E0,0E0,0E0],"parents":[2147483647,0,0,1,1,2,2,3,3,4,4,7,7,8,8,9,9,10,10,11,11,14,14,15,15,16,16,17,17,18,18,19,19,20,20,24,24],"right_children":[2,4,6,8,10,-1,-1,12,14,16,18,20,-1,-1,22,24,26,28,30,32,34,-1,-1,-1,36,-1,-1,-1,-1,-1,-1,-1,-1,-1,-1,-1,-1],"split_conditions":[1.2491988E1,4.048877E0,2.003527E1,1.0000898E0,9.946407E-1,-1.22789636E-1,4.582821E-2,1.5923584E-2,-1.4045746E-2,1.9185983E-2,-7.025864E-3,1.0039663E0,1.0815746E-1,-4.8405517E-2,1.2780809E-3,1.0431774E0,9.6487427E-1,-2.354592E-2,7.3627234E-3,-4.031695E-3,3.6626684E-3,2.2860223E-1,-3.0124854E-2,2.1163136E-1,6.0204487E0,-1.0971733E-1,-2.1461524E-2,-2.0314013E-3,7.378395E-2,-1.408653E-1,1.2247624E-2,-2.1432208E-1,-5.9337663E-3,2.3559796E-2,-8.48656E-2,-1.1174105E-2,1.1997616E-1],"split_indices":[0,0,0,2,2,0,0,3,3,3,3,1,0,0,3,1,2,3,3,3,3,0,0,0,0,0,0,0,0,0,0,0,0,0,0,0,0],"split_type":[0,0,0,0,0,0,0,0,0,0,0,0,0,0,0,0,0,0,0,0,0,0,0,0,0,0,0,0,0,0,0,0,0,0,0,0,0],"sum_hessian":[3.1593718E1,2.9300936E1,2.2927833E0,1.8536419E1,1.0764517E1,1.2065672E0,1.0862161E0,1.4228149E1,4.3082695E0,6.4439735E0,4.320543E0,1.3108636E1,1.1195129E0,1.2469883E0,3.061281E0,4.432033E0,2.0119407E0,2.0526283E0,2.2679145E0,2.099756E0,1.1008881E1,1.5975201E0,1.4637609E0,1.6487681E0,2.7832649E0,1.0019753E0,1.0099654E0,1.0443729E0,1.0082555E0,1.2442174E0,1.0236971E0,1.096101E0,1.003655E0,5.9313803E0,5.0775E0,1.2618248E0,1.5214401E0],"tree_param":{"num_deleted":"0","num_feature":"4","num_nodes":"37","size_leaf_vector":"1"}},{"base_weights":[7.603254E-3,-4.26461E-2,8.4479205E-2,2.0315504E-2,-1.7706351E-1,3.632987E-1,-6.506051E-2,-4.4773445E-2,3.5489282E-1,1.02209665E-1,1.924321E-1,-2.638302E-1,8.026685E-2,6.9058485E-2,-2.4992573E-1,1.3403395E-1,2.9313166E-2,8.710243E-2,-3.1733412E-2,1.2450536E-2,-1.3507782E-1,1.1945532E-1,-7.2829545E-2,1.9408809E-1,-9.0927154E-2,3.3656247E-2,-1.7290872E-1,-2.7317914E-1,6.6114664E-2,-1.2634504E-1,1.1269549E-2,-6.184495E-2,9.2548445E-2,-1.8673375E-2,-1.0941159E-1],"categories":[],"categories_nodes":[],"categories_segments":[],"categories_sizes":[],"default_left":[0,0,0,0,0,0,0,0,0,0,0,0,0,0,0,0,0,0,0,0,0,0,0,0,0,0,0,0,0,0,0,0,0,0,0],"id":34,"left_children":[1,3,5,7,-1,9,11,13,15,17,-1,19,21,23,25,-1,-1,-1,-1,-1,-1,-1,27,-1,29,31,-1,33,-1,-1,-1,-1,-1,-1,-1],"loss_changes":[1.2603965E-1,6.956884E-1,5.5998325E-1,4.2427787E-1,0E0,2.7158207E-1,2.8754425E-1,4.0461004E-1,3.1165212E-2,1.7096014E-1,0E0,2.5364968E-1,3.25576E-1,1.117559E0,5.873834E-1,0E0,0E0,0E0,0E0,0E0,0E0,0E0,3.5147142E-1,0E0,4.3356243E-1,3.4226573E-1,0E0,4.2785853E-2,0E0,0E0,0E0,0E0,0E0,0E0,0E0],"parents":[2147483647,0,0,1,1,2,2,3,3,5,5,6,6,7,7,8,8,9,9,11,11,12,12,13,13,14,14,22,22,24,24,25,25,27,27],"right_children":[2,4,6,8,-1,10,12,14,16,18,-1,20,22,24,26,-1,-1,-1,-1,-1,-1,-1,28,-1,30,32,-1,34,-1,-1,-1,-1,-1,-1,-1],"split_conditions":[5.2660755E-3,4.9820836E-3,3.2581985E0,3.0961554E-3,-1.7706351E-1,2.6100914E0,4.985769E0,1.0185026E0,9.8677903E-1,6.290537E-3,1.924321E-1,3.5439036E0,1.1748063E-2,9.8947144E-1,-1.7522937E-3,1.3403395E-1,2.9313166E-2,8.710243E-2,-3.1733412E-2,1.2450536E-2,-1.3507782E-1,1.1945532E-1,3.251874E-2,1.9408809E-1,9.933993E-1,4.949806E0,-1.7290872E-1,7.6224084E0,6.6114664E-2,-1.2634504E-1,1.1269549E-2,-6.184495E-2,9.2548445E-2,-1.8673375E-2,-1.0941159E-1],"split_indices":[3,3,0,3,0,0,0,1,2,3,0,0,3,2,3,0,0,0,0,0,0,0,3,0,2,0,0,0,0,0,0,0,0,0,0],"split_type":[0,0,0,0,0,0,0,0,0,0,0,0,0,0,0,0,0,0,0,0,0,0,0,0,0,0,0,0,0,0,0,0,0,0,0],"sum_hessian":[3.0695059E1,1.8831354E1,1.1863705E1,1.775294E1,1.0784159E0,3.6425877E0,8.221117E0,1.5586841E1,2.1660979E0,2.5842495E0,1.0583382E0,3.1277523E0,5.0933642E0,1.0451206E1,5.1356344E0,1.0527552E0,1.1133425E0,1.1489929E0,1.4352566E0,1.4804578E0,1.6472945E0,1.1351845E0,3.95818E0,1.6060287E0,8.845178E0,3.2281632E0,1.9074713E0,2.3920379E0,1.5661421E0,1.839659E0,7.005519E0,1.8574225E0,1.3707409E0,1.2322419E0,1.159796E0],"tree_param":{"num_deleted":"0","num_feature":"4","num_nodes":"35","size_leaf_vector":"1"}},{"base_weights":[9.345061E-3,6.248319E-2,-1.021488E-2,-2.0356418E-1,2.4713939E-2,-1.09420784E-1,1.5336263E-2,2.6411834E-1,-9.612399E-3,1.4869064E-2,1.01604074E-1,-1.3702081E-1,3.214291E-2,1.30736E-1,-9.548331E-3,-9.609567E-2,7.6902215E-3],"categories":[],"categories_nodes":[],"categories_segments":[],"categories_sizes":[],"default_left":[0,0,0,0,0,0,0,0,0,0,0,0,0,0,0,0,0],"id":35,"left_children":[1,-1,3,5,7,-1,-1,9,11,-1,-1,-1,13,-1,15,-1,-1],"loss_changes":[1.2295634E-1,0E0,2.0240715E-1,2.066506E-1,2.1329294E-1,0E0,0E0,3.5224393E-2,4.5145425E-1,0E0,0E0,0E0,3.7995237E-1,0E0,2.4020983E-1,0E0,0E0],"parents":[2147483647,0,0,2,2,3,3,4,4,7,7,8,8,12,12,14,14],"right_children":[2,-1,4,6,8,-1,-1,10,12,-1,-1,-1,14,-1,16,-1,-1],"split_conditions":[1.3058618E0,6.248319E-2,1.8042978E0,1.0153288E0,2.0792584E0,-1.09420784E-1,1.5336263E-2,9.8701626E-1,2.298934E0,1.4869064E-2,1.01604074E-1,-1.3702081E-1,2.600023E0,1.30736E-1,2.6965683E0,-9.609567E-2,7.6902215E-3],"split_indices":[0,0,0,1,0,0,0,2,0,0,0,0,0,0,0,0,0],"split_type":[0,0,0,0,0,0,0,0,0,0,0,0,0,0,0,0,0],"sum_hessian":[3.005259E1,1.8266535E0,2.8225935E1,3.5801208E0,2.4645815E1,1.9279529E0,1.6521679E0,2.2511485E0,2.2394667E1,1.0098876E0,1.2412609E0,1.0638943E0,2.1330772E1,1.1119968E0,2.0218775E1,1.2319843E0,1.8986792E1],"tree_param":{"num_deleted":"0","num_feature":"4","num_nodes":"17","size_leaf_vector":"1"}},{"base_weights":[6.361354E-3,1.5721786E-1,-1.7815962E-2,-4.941835E-2,1.2547578E-1,-9.6979454E-2,1.8395081E-2,-1.0842166E-1,9.133005E-2,2.223353E-1,-1.5084289E-2,1.4566822E-1,-2.6860194E-2,-1.0112282E-1,1.5636265E-2,1.3575114E-1,-5.4503676E-2,-5.959032E-2,6.6265985E-2,-1.1068825E-1,1.181749E-2],"categories":[],"categories_nodes":[],"categories_segments":[],"categories_sizes":[],"default_left":[0,0,0,0,0,0,0,0,0,0,0,0,0,0,0,0,0,0,0,0,0],"id":36,"left_children":[1,3,5,7,-1,-1,9,-1,-1,11,13,-1,-1,-1,15,17,19,-1,-1,-1,-1],"loss_changes":[1.1521155E-1,2.557881E-1,3.0968454E-1,4.7735107E-1,0E0,0E0,1.7744106E-1,0E0,0E0,3.4384346E-1,2.3117812E-1,0E0,0E0,0E0,1.910983E-1,2.8087175E-1,4.4205594E-1,0E0,0E0,0E0,0E0],"parents":[2147483647,0,0,1,1,2,2,3,3,6,6,9,9,10,10,14,14,15,15,16,16],"right_children":[2,4,6,8,-1,-1,10,-1,-1,12,14,-1,-1,-1,16,18,20,-1,-1,-1,-1],"split_conditions":[1.4946238E0,9.920945E-1,1.8042978E0,1.0153288E0,1.2547578E-1,-9.6979454E-2,2.2067013E0,-1.0842166E-1,9.133005E-2,1.0144478E0,2.3848753E0,1.4566822E-1,-2.6860194E-2,-1.0112282E-1,-1.7522937E-3,-3.024432E-2,2.5157994E-3,-5.959032E-2,6.6265985E-2,-1.1068825E-1,1.181749E-2],"split_indices":[0,2,0,1,0,0,0,0,0,1,0,0,0,0,3,3,3,0,0,0,0],"split_type":[0,0,0,0,0,0,0,0,0,0,0,0,0,0,0,0,0,0,0,0,0],"sum_hessian":[2.9820166E1,3.3589568E0,2.6461208E1,2.3273218E0,1.0316352E0,1.964334E0,2.4496876E1,1.2254815E0,1.1018401E0,2.6589384E0,2.1837936E1,1.1398987E0,1.5190396E0,1.0334712E0,2.0804466E1,7.3249803E0,1.34794855E1,1.21595E0,6.1090302E0,2.4258332E0,1.1053653E1],"tree_param":{"num_deleted":"0","num_feature":"4","num_nodes":"21","size_leaf_vector":"1"}},{"base_weights":[2.7491967E-3,-5.9762575E-2,5.807553E-2,5.027636E-3,-1.1366753E-1,1.1680378E-1,-1.3398896E-2,-5.8306683E-2,9.801559E-2,-3.290304E-1,7.027321E-2,5.626932E-2,-2.5183693E-1,-1.8332306E-2,-1.372794E-1,3.498746E-1,-7.1068294E-2,-8.686347E-2,2.4006268E-1,-1.1967334E-1,-7.268129E-2,1.3947481E-1,1.0955744E-2,-2.3262627E-1,5.0335035E-2,6.223522E-2,-9.1965966E-2,-8.339177E-3,1.3844806E-1,4.6905458E-2,-8.50784E-2,-1.23744674E-1,4.9897064E-3,5.996066E-2,-6.0972016E-2],"categories":[],"categories_nodes":[],"categories_segments":[],"categories_sizes":[],"default_left":[0,0,0,0,0,0,0,0,0,0,0,0,0,0,0,0,0,0,0,0,0,0,0,0,0,0,0,0,0,0,0,0,0,0,0],"id":37,"left_children":[1,3,5,7,-1,-1,9,11,-1,13,15,17,19,-1,-1,21,23,25,27,-1,29,-1,-1,31,33,-1,-1,-1,-1,-1,-1,-1,-1,-1,-1],"loss_changes":[1.0896919E-1,3.082197E-1,4.0036866E-1,2.9005474E-1,0E0,0E0,4.111834E-1,2.7941537E-1,0E0,8.416098E-2,5.164428E-1,2.4001634E-1,9.3028635E-2,0E0,0E0,1.3967192E-1,1.9006503E-1,4.1390437E-1,2.4492645E-1,0E0,2.0426105E-1,0E0,0E0,1.8974213E-1,2.6866248E-1,0E0,0E0,0E0,0E0,0E0,0E0,0E0,0E0,0E0,0E0],"parents":[2147483647,0,0,1,1,2,2,3,3,6,6,7,7,9,9,10,10,11,11,12,12,15,15,16,16,17,17,18,18,20,20,23,23,24,24],"right_children":[2,4,6,8,-1,-1,10,12,-1,14,16,18,20,-1,-1,22,24,26,28,-1,30,-1,-1,32,34,-1,-1,-1,-1,-1,-1,-1,-1,-1,-1],"split_conditions":[2.1646428E-3,7.948296E-4,3.669132E-3,-6.661562E-4,-1.1366753E-1,1.1680378E-1,5.2660755E-3,-5.4037217E-3,9.801559E-2,4.804756E-3,3.2581985E0,1.0103861E0,1.0120916E0,-1.8332306E-2,-1.372794E-1,9.8370385E-1,4.985769E0,9.852028E-1,-1.82956E-2,-1.1967334E-1,1.0396786E0,1.3947481E-1,1.0955744E-2,1.3600918E-2,9.92282E0,6.223522E-2,-9.1965966E-2,-8.339177E-3,1.3844806E-1,4.6905458E-2,-8.50784E-2,-1.23744674E-1,4.9897064E-3,5.996066E-2,-6.0972016E-2],"split_indices":[3,3,3,3,0,0,3,3,0,3,0,2,1,0,0,2,0,2,3,0,1,0,0,3,0,0,0,0,0,0,0,0,0,0,0],"split_type":[0,0,0,0,0,0,0,0,0,0,0,0,0,0,0,0,0,0,0,0,0,0,0,0,0,0,0,0,0,0,0,0,0,0,0],"sum_hessian":[2.9503689E1,1.38146715E1,1.5689017E1,1.2301453E1,1.5132184E0,1.99504E0,1.3693977E1,1.0962009E1,1.339444E0,2.2550404E0,1.1438937E1,7.3310466E0,3.6309624E0,1.2096146E0,1.0454257E0,3.345498E0,8.093439E0,4.4179015E0,2.9131448E0,1.3203942E0,2.3105683E0,2.0933146E0,1.2521834E0,3.0793874E0,5.0140514E0,1.9120606E0,2.505841E0,1.7141007E0,1.1990442E0,1.2317225E0,1.0788459E0,1.4083426E0,1.671045E0,3.287312E0,1.7267395E0],"tree_param":{"num_deleted":"0","num_feature":"4","num_nodes":"35","size_leaf_vector":"1"}},{"base_weights":[-4.5681166E-4,-5.5403173E-2,7.441386E-2,2.2768594E-2,-2.803236E-1,2.1775663E-1,-2.093637E-1,-1.5634583E-1,1.06279455E-1,3.9270464E-2,-1.8613985E-1,5.4135565E-2,1.5204635E-1,-1.264426E-1,3.4161363E-2,3.6126237E-2,-3.4852195E-1,3.1544164E-1,-1.23866156E-1,2.1022087E-1,-8.103644E-2,-3.3906862E-2,4.734091E-2,-7.7481633E-3,-1.5172562E-1,3.869381E-2,1.5826043E-1,-2.5080833E-1,4.506039E-2,-3.9453655E-2,4.0586996E-1,-7.969713E-2,9.675518E-2,-1.1781806E-1,2.4778398E-3,8.728294E-3,1.6507356E-1],"categories":[],"categories_nodes":[],"categories_segments":[],"categories_sizes":[],"default_left":[0,0,0,0,0,0,0,0,0,0,0,0,0,0,0,0,0,0,0,0,0,0,0,0,0,0,0,0,0,0,0,0,0,0,0,0,0],"id":38,"left_children":[1,3,5,7,9,11,13,15,17,-1,-1,19,-1,-1,21,-1,23,25,27,29,-1,-1,-1,-1,-1,31,-1,33,-1,-1,35,-1,-1,-1,-1,-1,-1],"loss_changes":[1.2694207E-1,3.1920466E-1,5.7696706E-1,2.279412E-1,7.335789E-1,4.0624434E-1,2.671882E-1,3.0243775E-1,5.315579E-1,0E0,0E0,4.097867E-1,0E0,0E0,7.612851E-2,0E0,1.4661053E-1,3.1073272E-1,2.3211995E-1,4.0577114E-1,0E0,0E0,0E0,0E0,0E0,3.9033946E-1,0E0,1.5745649E-1,0E0,0E0,1.7962724E-1,0E0,0E0,0E0,0E0,0E0,0E0],"parents":[2147483647,0,0,1,1,2,2,3,3,4,4,5,5,6,6,7,7,8,8,11,11,14,14,16,16,17,17,18,18,19,19,25,25,27,27,30,30],"right_children":[2,4,6,8,10,12,14,16,18,-1,-1,20,-1,-1,22,-1,24,26,28,30,-1,-1,-1,-1,-1,32,-1,34,-1,-1,36,-1,-1,-1,-1,-1,-1],"split_conditions":[9.900448E-1,9.8387945E-1,5.9281344E0,2.1128794E-3,3.6626684E-3,2.3487944E-3,9.467167E0,-5.4037217E-3,1.1748063E-2,3.9270464E-2,-1.8613985E-1,1.9625068E-5,1.5204635E-1,-1.264426E-1,1.0252815E0,3.6126237E-2,9.690728E-1,9.7189224E-1,1.0725794E0,-1.4045746E-2,-8.103644E-2,-3.3906862E-2,4.734091E-2,-7.7481633E-3,-1.5172562E-1,1.0514816E0,1.5826043E-1,9.653572E-1,4.506039E-2,-3.9453655E-2,9.8941064E-1,-7.969713E-2,9.675518E-2,-1.1781806E-1,2.4778398E-3,8.728294E-3,1.6507356E-1],"split_indices":[2,2,0,3,3,3,0,3,3,0,0,3,0,0,2,0,2,2,1,3,0,0,0,0,0,1,0,2,0,0,1,0,0,0,0,0,0],"split_type":[0,0,0,0,0,0,0,0,0,0,0,0,0,0,0,0,0,0,0,0,0,0,0,0,0,0,0,0,0,0,0,0,0,0,0,0,0],"sum_hessian":[2.8854923E1,1.6791748E1,1.2063174E1,1.3127884E1,3.6638644E0,8.169312E0,3.8938627E0,3.897134E0,9.23075E0,1.937104E0,1.7267605E0,5.9746947E0,2.1946166E0,1.6906079E0,2.2032547E0,1.7500888E0,2.1470451E0,4.6416674E0,4.5890827E0,4.270648E0,1.704047E0,1.0450733E0,1.1581815E0,1.084831E0,1.0622141E0,2.526901E0,2.1147661E0,3.1943805E0,1.3947022E0,1.6742003E0,2.5964475E0,1.2502416E0,1.2766595E0,1.7304882E0,1.4638923E0,1.0521562E0,1.5442914E0],"tree_param":{"num_deleted":"0","num_feature":"4","num_nodes":"37","size_leaf_vector":"1"}},{"base_weights":[-2.5520714E-3,-3.6047515E-2,1.2556967E-1,8.020593E-3,-1.264825E-1,-1.13011144E-1,2.9888007E-1,-3.0932127E-2,8.949769E-2,1.2039136E-2,-6.928383E-2,2.6048234E-2,1.2464768E-1,-3.356295E-1,2.5663143E-2,-6.6301296E-3,-1.4681232E-1,-3.70388E-2,2.0858145E-1,-4.7810428E-2,6.998855E-2,1.0001055E-1,-3.481448E-2],"categories":[],"categories_nodes":[],"categories_segments":[],"categories_sizes":[],"default_left":[0,0,0,0,0,0,0,0,0,0,0,0,0,0,0,0,0,0,0,0,0,0,0],"id":39,"left_children":[1,3,5,7,-1,9,11,13,-1,-1,-1,-1,-1,15,17,-1,-1,19,21,-1,-1,-1,-1],"loss_changes":[1.2886833E-1,4.068493E-1,2.9129377E-1,2.6130617E-1,0E0,6.970195E-2,5.991292E-2,3.6316818E-1,0E0,0E0,0E0,0E0,0E0,1.4785945E-1,2.1725622E-1,0E0,0E0,5.151808E-1,2.3371817E-1,0E0,0E0,0E0,0E0],"parents":[2147483647,0,0,1,1,2,2,3,3,5,5,6,6,7,7,13,13,14,14,17,17,18,18],"right_children":[2,4,6,8,-1,10,12,14,-1,-1,-1,-1,-1,16,18,-1,-1,20,22,-1,-1,-1,-1],"split_conditions":[1.5103538E-2,1.1748063E-2,9.653572E-1,1.0310627E0,-1.264825E-1,9.551999E-1,9.953585E-1,9.787619E-1,8.949769E-2,1.2039136E-2,-6.928383E-2,2.6048234E-2,1.2464768E-1,3.5299616E0,9.934595E-1,-6.6301296E-3,-1.4681232E-1,3.8597941E0,1.2780809E-3,-4.7810428E-2,6.998855E-2,1.0001055E-1,-3.481448E-2],"split_indices":[3,3,2,2,0,2,1,1,0,0,0,0,0,0,2,0,0,0,3,0,0,0,0],"split_type":[0,0,0,0,0,0,0,0,0,0,0,0,0,0,0,0,0,0,0,0,0,0,0],"sum_hessian":[2.797402E1,2.2746061E1,5.227959E0,2.12917E1,1.4543614E0,2.3461509E0,2.881808E0,1.9560543E1,1.7311565E0,1.3077401E0,1.0384108E0,1.6414703E0,1.2403377E0,2.291771E0,1.7268772E1,1.130372E0,1.1613989E0,1.3454323E1,3.8144495E0,9.545396E0,3.9089267E0,2.735868E0,1.0785815E0],"tree_param":{"num_deleted":"0","num_feature":"4","num_nodes":"23","size_leaf_vector":"1"}},{"base_weights":[-2.0993818E-3,1.9522322E-2,-1.8737602E-1,7.761717E-2,-1.4727012E-3,-1.13515474E-1,3.089767E-2,-1.0668462E-1,2.8837033E-2,1.01547055E-1,-7.128758E-3,-3.4285422E-2,7.144577E-2,3.8212938E-3,-1.3350102E-1],"categories":[],"categories_nodes":[],"categories_segments":[],"categories_sizes":[],"default_left":[0,0,0,0,0,0,0,0,0,0,0,0,0,0,0],"id":40,"left_children":[1,3,5,-1,7,-1,-1,-1,9,-1,11,13,-1,-1,-1],"loss_changes":[1.1806068E-1,1.333601E-1,2.0972806E-1,0E0,2.822199E-1,0E0,0E0,0E0,2.726428E-1,0E0,1.5949492E-1,4.1758543E-1,0E0,0E0,0E0],"parents":[2147483647,0,0,1,1,2,2,4,4,8,8,10,10,11,11],"right_children":[2,4,6,-1,8,-1,-1,-1,10,-1,12,14,-1,-1,-1],"split_conditions":[1.2491988E1,9.569562E-1,1.930955E1,7.761717E-2,9.6011764E-1,-1.13515474E-1,3.089767E-2,-1.0668462E-1,9.6377677E-1,1.01547055E-1,1.0541465E1,1.0654467E0,7.144577E-2,3.8212938E-3,-1.3350102E-1],"split_indices":[0,2,0,0,2,0,0,0,2,0,0,1,0,0,0],"split_type":[0,0,0,0,0,0,0,0,0,0,0,0,0,0,0],"sum_hessian":[2.7557852E1,2.5479084E1,2.0787666E0,1.1422329E0,2.4336851E1,1.0710753E0,1.0076911E0,1.0725329E0,2.3264318E1,1.5456194E0,2.1718699E1,2.0328249E1,1.3904506E0,1.9109402E1,1.218847E0],"tree_param":{"num_deleted":"0","num_feature":"4","num_nodes":"15","size_leaf_vector":"1"}},{"base_weights":[-4.079021E-3,3.5394166E-2,-1.0923899E-1,2.7132154E-1,-1.1492103E-2,-2.1163979E-1,6.4655766E-2,3.3638233E-3,1.3240889E-1,-1.6452697E-1,1.344413E-1,-3.2021794E-1,1.6623743E-2,-1.266258E-2,-3.9401105E-1,-5.8382828E-2,2.2941893E-1,4.7546662E-3,-1.4855325E-1,-2.2279261E-1,2.1171662E-1,8.2910206E-4,-1.7637433E-1,3.0420078E-2,3.684919E-1,3.352987E-2,-1.14493914E-1,1.2823795E-1,-7.944099E-3,7.578456E-2,-1.0067243E-1,1.5984258E-1,1.4900498E-4],"categories":[],"categories_nodes":[],"categories_segments":[],"categories_sizes":[],"default_left":[0,0,0,0,0,0,0,0,0,0,0,0,0,0,0,0,0,0,0,0,0,0,0,0,0,0,0,0,0,0,0,0,0],"id":41,"left_children":[1,3,5,7,9,11,-1,-1,-1,13,15,17,-1,19,21,-1,23,-1,-1,25,27,-1,-1,29,31,-1,-1,-1,-1,-1,-1,-1,-1],"loss_changes":[1.21437505E-1,2.3927322E-1,3.1081724E-1,1.5338948E-1,4.412821E-1,2.0817712E-1,0E0,0E0,0E0,3.2996556E-1,3.620987E-1,2.9105985E-1,0E0,3.685794E-1,2.9354E-1,0E0,2.1964186E-1,0E0,0E0,2.5563747E-1,2.0708388E-1,0E0,0E0,4.524612E-1,2.9119056E-1,0E0,0E0,0E0,0E0,0E0,0E0,0E0,0E0],"parents":[2147483647,0,0,1,1,2,2,3,3,4,4,5,5,9,9,10,10,11,11,13,13,14,14,16,16,19,19,20,20,23,23,24,24],"right_children":[2,4,6,8,10,12,-1,-1,-1,14,16,18,-1,20,22,-1,24,-1,-1,26,28,-1,-1,30,32,-1,-1,-1,-1,-1,-1,-1,-1],"split_conditions":[6.8987727E0,9.6377677E-1,3.251874E-2,9.600583E-1,9.884383E-1,1.0742053E0,6.4655766E-2,3.3638233E-3,1.3240889E-1,9.825386E-1,-1.4045746E-2,-1.0797763E-2,1.6623743E-2,5.2660755E-3,3.6626684E-3,-5.8382828E-2,9.934595E-1,4.7546662E-3,-1.4855325E-1,-5.4037217E-3,8.80079E-3,8.2910206E-4,-1.7637433E-1,9.914484E-1,1.0116918E0,3.352987E-2,-1.14493914E-1,1.2823795E-1,-7.944099E-3,7.578456E-2,-1.0067243E-1,1.5984258E-1,1.4900498E-4],"split_indices":[0,2,3,2,2,1,0,0,0,2,3,3,0,3,3,0,2,0,0,3,3,0,0,2,2,0,0,0,0,0,0,0,0],"split_type":[0,0,0,0,0,0,0,0,0,0,0,0,0,0,0,0,0,0,0,0,0,0,0,0,0,0,0,0,0,0,0,0,0],"sum_hessian":[2.7323563E1,2.0348799E1,6.9747653E0,2.579946E0,1.7768852E1,5.5675535E0,1.4072119E0,1.4412448E0,1.1387011E0,8.6112E0,9.157652E0,3.8166826E0,1.7508708E0,5.816937E0,2.7942631E0,1.8162471E0,7.341405E0,1.6180685E0,2.1986141E0,3.0074992E0,2.8094375E0,1.2408732E0,1.5533899E0,3.5213935E0,3.8200114E0,1.0636941E0,1.9438052E0,1.0572685E0,1.7521691E0,2.3839095E0,1.1374842E0,2.331213E0,1.4887984E0],"tree_param":{"num_deleted":"0","num_feature":"4","num_nodes":"33","size_leaf_vector":"1"}},{"base_weights":[-2.3657486E-3,-5.408139E-2,7.7385515E-2,1.0639953E-3,-1.255651E-1,3.1745166E-1,-4.586277E-2,-5.4618612E-2,1.0508282E-1,1.2710688E-2,1.2152305E-1,4.485701E-2,-1.2818147E-1,4.2472854E-2,-2.2429392E-1,-2.9127473E-1,1.2330921E-1,1.4972153E-1,-1.2466536E-1,-1.6724741E-2,-1.3324353E-1,-5.648404E-4,-1.2254681E-1,-2.1219712E-2,8.124636E-2,-1.4477536E-1,8.243055E-6,4.9854524E-2,-5.378486E-2],"categories":[],"categories_nodes":[],"categories_segments":[],"categories_sizes":[],"default_left":[0,0,0,0,0,0,0,0,0,0,0,0,0,0,0,0,0,0,0,0,0,0,0,0,0,0,0,0,0],"id":42,"left_children":[1,3,5,7,-1,9,11,13,-1,-1,-1,-1,15,17,19,21,23,-1,25,27,-1,-1,-1,-1,-1,-1,-1,-1,-1],"loss_changes":[1.17886215E-1,3.4839737E-1,3.4759575E-1,3.3092147E-1,0E0,7.791877E-2,1.5284434E-1,2.516025E-1,0E0,0E0,0E0,0E0,2.9784942E-1,8.396446E-1,2.4389538E-1,1.4072415E-1,1.1117382E-1,0E0,3.685429E-1,1.4491725E-1,0E0,0E0,0E0,0E0,0E0,0E0,0E0,0E0,0E0],"parents":[2147483647,0,0,1,1,2,2,3,3,5,5,6,6,7,7,12,12,13,13,14,14,15,15,16,16,18,18,19,19],"right_children":[2,4,6,8,-1,10,12,14,-1,-1,-1,-1,16,18,20,22,24,-1,26,28,-1,-1,-1,-1,-1,-1,-1,-1,-1],"split_conditions":[5.2660755E-3,4.6020867E-3,3.2581985E0,3.0961554E-3,-1.255651E-1,1.5779033E0,9.942902E-1,1.0185026E0,1.0508282E-1,1.2710688E-2,1.2152305E-1,4.485701E-2,6.0204487E0,9.903149E-1,-1.7522937E-3,3.5439036E0,1.0742053E0,1.4972153E-1,9.933993E-1,9.7423995E-1,-1.3324353E-1,-5.648404E-4,-1.2254681E-1,-2.1219712E-2,8.124636E-2,-1.4477536E-1,8.243055E-6,4.9854524E-2,-5.378486E-2],"split_indices":[3,3,0,3,0,0,1,1,0,0,0,0,0,2,3,0,1,0,2,2,0,0,0,0,0,0,0,0,0],"split_type":[0,0,0,0,0,0,0,0,0,0,0,0,0,0,0,0,0,0,0,0,0,0,0,0,0,0,0,0,0],"sum_hessian":[2.6567991E1,1.6312096E1,1.0255896E1,1.5034418E1,1.2776779E0,2.944607E0,7.311289E0,1.369441E1,1.3400083E0,1.0697751E0,1.874832E0,1.9252497E0,5.3860393E0,9.187073E0,4.5073376E0,3.1712627E0,2.2147763E0,1.9296229E0,7.2574496E0,2.8719254E0,1.6354122E0,1.2071025E0,1.9641602E0,1.1813247E0,1.0334516E0,1.1335405E0,6.123909E0,1.3408933E0,1.5310321E0],"tree_param":{"num_deleted":"0","num_feature":"4","num_nodes":"29","size_leaf_vector":"1"}},{"base_weights":[-2.7856212E-3,6.671174E-2,-2.4803221E-2,-2.0613468E-1,1.5091276E-2,-3.6375317E-1,3.7955903E-2,7.834759E-2,-1.6609274E-2,-1.3693401E-1,-2.2294495E-2,-1.5424694E-1,3.9100077E-2,-1.2602098E-1,5.4395672E-2,1.4315788E-1,-3.1277668E-2,9.1776446E-2,-7.136287E-2,-2.8348455E-2,6.6134594E-2],"categories":[],"categories_nodes":[],"categories_segments":[],"categories_sizes":[],"default_left":[0,0,0,0,0,0,0,0,0,0,0,0,0,0,0,0,0,0,0,0,0],"id":43,"left_children":[1,-1,3,5,7,9,-1,-1,11,-1,-1,13,15,-1,17,-1,19,-1,-1,-1,-1],"loss_changes":[1.3950849E-1,0E0,1.8773067E-1,2.909055E-1,1.7477967E-1,5.802241E-2,0E0,0E0,1.6166058E-1,0E0,0E0,3.5841495E-1,4.8500198E-1,0E0,3.8705173E-1,0E0,2.4480659E-1,0E0,0E0,0E0,0E0],"parents":[2147483647,0,0,2,2,3,3,4,4,5,5,8,8,11,11,12,12,14,14,16,16],"right_children":[2,-1,4,6,8,10,-1,-1,12,-1,-1,14,16,-1,18,-1,20,-1,-1,-1,-1],"split_conditions":[1.3058618E0,6.671174E-2,1.9319952E0,9.900448E-1,2.2067013E0,5.2660755E-3,3.7955903E-2,7.834759E-2,9.672691E-1,-1.3693401E-1,-2.2294495E-2,1.0518632E0,9.709719E-1,-1.2602098E-1,7.861268E0,1.4315788E-1,1.5923584E-2,9.1776446E-2,-7.136287E-2,-2.8348455E-2,6.6134594E-2],"split_indices":[0,0,0,2,0,3,0,0,2,0,0,1,2,0,0,0,3,0,0,0,0],"split_type":[0,0,0,0,0,0,0,0,0,0,0,0,0,0,0,0,0,0,0,0,0],"sum_hessian":[2.602865E1,1.5079702E0,2.452068E1,3.6704555E0,2.0850224E1,2.4270039E0,1.2434516E0,1.5534749E0,1.929675E1,1.4012424E0,1.0257615E0,5.0503583E0,1.424639E1,1.7752452E0,3.2751133E0,1.1717762E0,1.3074615E1,1.7351563E0,1.539957E0,1.0949443E1,2.1251714E0],"tree_param":{"num_deleted":"0","num_feature":"4","num_nodes":"21","size_leaf_vector":"1"}},{"base_weights":[1.7552581E-3,-1.8824676E-2,5.2513506E-2,1.9848552E-2,-1.2474575E-1,-2.4990413E-2,1.417888E-1,-9.236127E-2,1.3207344E-2,-1.5684868E-1,4.928515E-2,-8.451633E-2,2.7825054E-2,-8.153102E-3,9.587013E-2],"categories":[],"categories_nodes":[],"categories_segments":[],"categories_sizes":[],"default_left":[0,0,0,0,0,0,0,0,0,0,0,0,0,0,0],"id":44,"left_children":[1,3,-1,5,-1,7,-1,-1,9,11,13,-1,-1,-1,-1],"loss_changes":[9.833317E-2,3.878269E-1,0E0,4.8856473E-1,0E0,2.4520645E-1,0E0,0E0,1.3424256E-1,1.4606825E-1,3.7597597E-1,0E0,0E0,0E0,0E0],"parents":[2147483647,0,0,1,1,3,3,5,5,8,8,9,9,10,10],"right_children":[2,4,-1,6,-1,8,-1,-1,10,12,14,-1,-1,-1,-1],"split_conditions":[1.0345094E0,1.0252815E0,5.2513506E-2,1.0142066E0,-1.2474575E-1,-1.4045746E-2,1.417888E-1,-9.236127E-2,9.9571455E-1,5.0571808E-3,9.906823E-1,-8.451633E-2,2.7825054E-2,-8.153102E-3,9.587013E-2],"split_indices":[2,2,0,2,0,3,0,0,1,3,2,0,0,0,0],"split_type":[0,0,0,0,0,0,0,0,0,0,0,0,0,0,0],"sum_hessian":[2.564897E1,2.372299E1,1.9259795E0,2.2482828E1,1.2401625E0,2.1316643E1,1.1661848E0,1.6960814E0,1.9620562E1,2.84813E0,1.6772432E1,1.812603E0,1.0355269E0,1.3774973E1,2.9974597E0],"tree_param":{"num_deleted":"0","num_feature":"4","num_nodes":"15","size_leaf_vector":"1"}},{"base_weights":[1.7447941E-3,1.455891E-1,-2.1153128E-2,-1.741363E-2,9.245537E-2,-8.133011E-2,1.7516315E-2,8.209493E-2,-7.9878055E-2,1.7944534E-1,-7.358996E-2,-2.0974714E-1,8.2656115E-2,3.9923884E-2,1.0391431E-1,-9.9732324E-2,1.02622174E-1,-1.2782334E-1,-3.0076148E-2,-5.6564398E-2,8.993539E-2,7.4834414E-2,-6.1825935E-2,9.81143E-2,-3.5856944E-2,6.130286E-2,-7.7094086E-2,-5.0134424E-2,2.5833307E-2],"categories":[],"categories_nodes":[],"categories_segments":[],"categories_sizes":[],"default_left":[0,0,0,0,0,0,0,0,0,0,0,0,0,0,0,0,0,0,0,0,0,0,0,0,0,0,0,0,0],"id":45,"left_children":[1,3,5,-1,-1,-1,7,9,11,13,15,17,19,21,-1,-1,23,-1,25,27,-1,-1,-1,-1,-1,-1,-1,-1,-1],"loss_changes":[8.9901134E-2,1.4194205E-1,2.3297472E-1,0E0,0E0,0E0,1.4108248E-1,2.1559927E-1,2.0803714E-1,1.8431258E-1,3.00808E-1,1.9336322E-1,1.5993631E-1,3.4853277E-1,0E0,0E0,2.5061798E-1,0E0,2.63878E-1,7.3116824E-2,0E0,0E0,0E0,0E0,0E0,0E0,0E0,0E0,0E0],"parents":[2147483647,0,0,1,1,2,2,6,6,7,7,8,8,9,9,10,10,11,11,12,12,13,13,16,16,18,18,19,19],"right_children":[2,4,6,-1,-1,-1,8,10,12,14,16,18,20,22,-1,-1,24,-1,26,28,-1,-1,-1,-1,-1,-1,-1,-1,-1],"split_conditions":[1.4946238E0,1.0120916E0,1.9319952E0,-1.741363E-2,9.245537E-2,-8.133011E-2,5.520567E0,1.0218505E0,1.0359529E0,3.3836424E0,1.0344545E0,8.521319E0,9.651566E-1,2.6779528E0,1.0391431E-1,-9.9732324E-2,1.0511038E0,-1.2782334E-1,1.085178E1,1.6924988E-2,8.993539E-2,7.4834414E-2,-6.1825935E-2,9.81143E-2,-3.5856944E-2,6.130286E-2,-7.7094086E-2,-5.0134424E-2,2.5833307E-2],"split_indices":[0,1,0,0,0,0,0,1,1,0,1,0,2,0,0,0,1,0,0,3,0,0,0,0,0,0,0,0,0],"split_type":[0,0,0,0,0,0,0,0,0,0,0,0,0,0,0,0,0,0,0,0,0,0,0,0,0,0,0,0,0],"sum_hessian":[2.5359575E1,2.7466972E0,2.2612879E1,1.5049301E0,1.241767E0,2.2243915E0,2.0388487E1,1.2354055E1,8.034431E0,7.507171E0,4.8468843E0,4.3045235E0,3.729908E0,4.7643676E0,2.742804E0,1.6040219E0,3.2428625E0,1.3307804E0,2.973743E0,2.7232668E0,1.0066413E0,2.565439E0,2.1989284E0,1.378246E0,1.8646166E0,1.5115561E0,1.4621869E0,1.4378629E0,1.285404E0],"tree_param":{"num_deleted":"0","num_feature":"4","num_nodes":"29","size_leaf_vector":"1"}},{"base_weights":[1.1980562E-3,-1.6351081E-2,5.77331E-2,1.5838945E-2,-1.1421316E-1,7.68813E-2,-1.0497667E-2,-2.0698492E-1,2.5767254E-2,4.1672695E-2,-1.2991537E-1,-2.5564244E-2,9.6464895E-2,3.1482928E-2,-2.5784267E-2],"categories":[],"categories_nodes":[],"categories_segments":[],"categories_sizes":[],"default_left":[0,0,0,0,0,0,0,0,0,0,0,0,0,0,0],"id":46,"left_children":[1,3,-1,5,-1,-1,7,9,11,-1,-1,13,-1,-1,-1],"loss_changes":[9.017506E-2,2.9541197E-1,0E0,1.523201E-1,0E0,0E0,1.6393422E-1,3.3999035E-1,3.0700865E-1,0E0,0E0,1.4846742E-1,0E0,0E0,0E0],"parents":[2147483647,0,0,1,1,3,3,6,6,7,7,8,8,11,11],"right_children":[2,4,-1,6,-1,-1,8,10,12,-1,-1,14,-1,-1,-1],"split_conditions":[1.6022831E1,1.1621775E1,5.77331E-2,9.575759E-1,-1.1421316E-1,7.68813E-2,9.658419E-1,7.6030586E-3,1.425413E-2,4.1672695E-2,-1.2991537E-1,9.8387945E-1,9.6464895E-2,3.1482928E-2,-2.5784267E-2],"split_indices":[0,0,0,2,0,0,2,3,3,0,0,2,0,0,0],"split_type":[0,0,0,0,0,0,0,0,0,0,0,0,0,0,0],"sum_hessian":[2.4930674E1,2.3672895E1,1.2577775E0,2.2630123E1,1.0427719E0,1.3722243E0,2.12579E1,2.5786915E0,1.8679209E1,1.1716069E0,1.4070846E0,1.6695381E1,1.9838264E0,5.0477204E0,1.1647661E1],"tree_param":{"num_deleted":"0","num_feature":"4","num_nodes":"15","size_leaf_vector":"1"}},{"base_weights":[2.1040644E-3,1.8489951E-2,-5.668285E-2,-1.3867033E-2,1.13018736E-1,2.0025194E-2,-2.3295276E-1,-1.2273513E-2,8.50291E-2,-1.18075676E-1,7.2190515E-3,3.2176316E-2,-1.1055916E-1,-7.022694E-3,6.742217E-2],"categories":[],"categories_nodes":[],"categories_segments":[],"categories_sizes":[],"default_left":[0,0,0,0,0,0,0,0,0,0,0,0,0,0,0],"id":47,"left_children":[1,3,-1,5,-1,7,9,11,-1,-1,-1,13,-1,-1,-1],"loss_changes":[8.392313E-2,2.9007214E-1,0E0,1.7917882E-1,0E0,1.844765E-1,1.4273454E-1,3.2713532E-1,0E0,0E0,0E0,2.045713E-1,0E0,0E0,0E0],"parents":[2147483647,0,0,1,1,3,3,5,5,6,6,7,7,11,11],"right_children":[2,4,-1,6,-1,8,10,12,-1,-1,-1,14,-1,-1,-1],"split_conditions":[1.115068E0,1.0879064E0,-5.668285E-2,1.0154981E1,1.13018736E-1,8.521319E0,1.0064671E0,6.8987727E0,8.50291E-2,-1.18075676E-1,7.2190515E-3,4.2819257E0,-1.1055916E-1,-7.022694E-3,6.742217E-2],"split_indices":[1,1,0,0,0,0,2,0,0,0,0,0,0,0,0],"split_type":[0,0,0,0,0,0,0,0,0,0,0,0,0,0,0],"sum_hessian":[2.469247E1,2.357379E1,1.1186808E0,2.2502596E1,1.0711951E0,2.0274723E1,2.2278721E0,1.8909452E1,1.3652703E0,1.0440105E0,1.1838615E0,1.7620626E1,1.2888258E0,1.4355288E1,3.2653396E0],"tree_param":{"num_deleted":"0","num_feature":"4","num_nodes":"15","size_leaf_vector":"1"}},{"base_weights":[6.4929354E-4,5.2361045E-2,-1.7028848E-2,-2.0151609E-1,9.272521E-3,2.3884442E-2,-1.1543249E-1,-6.422826E-2,7.177116E-2,-2.8096035E-1,5.5462066E-2,1.1480022E-1,-2.959265E-2,6.7934575E-3,-1.723614E-1,2.4139187E-1,-1.4938985E-1,-1.1054749E-1,1.7915787E-1,1.128901E-1,-2.461411E-2,7.0834938E-3,-1.05113424E-1,-1.0563141E-1,1.2145424E-3,9.203364E-2,-5.5236253E-3],"categories":[],"categories_nodes":[],"categories_segments":[],"categories_sizes":[],"default_left":[0,0,0,0,0,0,0,0,0,0,0,0,0,0,0,0,0,0,0,0,0,0,0,0,0,0,0],"id":48,"left_children":[1,-1,3,5,7,-1,-1,9,11,13,15,-1,17,-1,-1,19,21,23,25,-1,-1,-1,-1,-1,-1,-1,-1],"loss_changes":[8.131329E-2,0E0,1.1853793E-1,1.8746714E-1,1.0567182E-1,0E0,0E0,2.9153812E-1,4.0090305E-1,3.650407E-1,3.2889664E-1,0E0,1.930393E-1,0E0,0E0,2.2341692E-1,1.5694654E-1,2.230109E-1,8.7495394E-2,0E0,0E0,0E0,0E0,0E0,0E0,0E0,0E0],"parents":[2147483647,0,0,2,2,3,3,4,4,7,7,8,8,9,9,10,10,12,12,15,15,16,16,17,17,18,18],"right_children":[2,-1,4,6,8,-1,-1,10,12,14,16,-1,18,-1,-1,20,22,24,26,-1,-1,-1,-1,-1,-1,-1,-1],"split_conditions":[1.3058618E0,5.2361045E-2,1.5656247E0,3.4972976E-3,2.1646428E-3,2.3884442E-2,-1.1543249E-1,2.7716873E0,2.566029E0,1.0139955E0,6.086044E0,1.1480022E-1,1.0668321E0,6.7934575E-3,-1.723614E-1,1.0072259E0,-5.9680957E-3,9.653572E-1,9.5904124E-1,1.128901E-1,-2.461411E-2,7.0834938E-3,-1.05113424E-1,-1.0563141E-1,1.2145424E-3,9.203364E-2,-5.5236253E-3],"split_indices":[0,0,0,3,3,0,0,0,0,1,0,0,1,0,0,2,3,2,2,0,0,0,0,0,0,0,0],"split_type":[0,0,0,0,0,0,0,0,0,0,0,0,0,0,0,0,0,0,0,0,0,0,0,0,0,0,0],"sum_hessian":[2.448501E1,1.4407113E0,2.3044298E1,2.044142E0,2.1000156E1,1.0298487E0,1.0142934E0,9.63792E0,1.1362236E1,2.949553E0,6.6883674E0,2.1113276E0,9.250909E0,1.9036976E0,1.0458554E0,3.4126084E0,3.2757592E0,7.004824E0,2.246085E0,2.2928216E0,1.1197865E0,2.2347286E0,1.0410304E0,1.5870022E0,5.417822E0,1.0287806E0,1.2173042E0],"tree_param":{"num_deleted":"0","num_feature":"4","num_nodes":"27","size_leaf_vector":"1"}},{"base_weights":[-4.3077464E-3,-2.1258049E-2,6.0037177E-2,1.8646041E-2,-1.5946732E-1,-2.9205417E-2,8.563653E-2,1.9158533E-2,-3.0828938E-1,-7.3465444E-2,7.519646E-2,-1.16297714E-1,-2.8403519E-2,1.5342787E-1,-1.1803826E-1,-1.5720533E-2,8.430999E-2,3.2367783E-3,-6.230187E-2],"categories":[],"categories_nodes":[],"categories_segments":[],"categories_sizes":[],"default_left":[0,0,0,0,0,0,0,0,0,0,0,0,0,0,0,0,0,0,0],"id":49,"left_children":[1,3,-1,5,7,9,-1,-1,11,13,-1,-1,-1,15,17,-1,-1,-1,-1],"loss_changes":[9.098687E-2,1.354317E-1,0E0,2.5770393E-1,2.0200454E-1,2.3479344E-1,0E0,0E0,2.201721E-2,1.7847314E-1,0E0,0E0,0E0,9.4529346E-2,1.6180615E-1,0E0,0E0,0E0,0E0],"parents":[2147483647,0,0,1,1,3,3,4,4,5,5,8,8,9,9,13,13,14,14],"right_children":[2,4,-1,6,8,10,-1,-1,12,14,-1,-1,-1,16,18,-1,-1,-1,-1],"split_conditions":[4.0594406E-2,1.1748063E-2,6.0037177E-2,7.3627234E-3,4.5179486E0,1.0310627E0,8.563653E-2,1.9158533E-2,9.651566E-1,1.3695537E0,7.519646E-2,-1.16297714E-1,-2.8403519E-2,1.0749186E0,9.870138E-1,-1.5720533E-2,8.430999E-2,3.2367783E-3,-6.230187E-2],"split_indices":[3,3,0,3,0,2,0,0,2,0,0,0,0,0,2,0,0,0,0],"split_type":[0,0,0,0,0,0,0,0,0,0,0,0,0,0,0,0,0,0,0],"sum_hessian":[2.402977E1,2.3017319E1,1.0124503E0,1.853185E1,4.485469E0,1.6468761E1,2.0630884E0,2.0220194E0,2.4634492E0,1.4856666E1,1.6120962E0,1.2020307E0,1.2614186E0,2.0383697E0,1.2818296E1,1.005625E0,1.0327446E0,5.620235E0,7.198061E0],"tree_param":{"num_deleted":"0","num_feature":"4","num_nodes":"19","size_leaf_vector":"1"}},{"base_weights":[1.2016876E-3,-5.681682E-2,2.2078626E-2,1.964769E-1,-1.3837629E-2,-2.6312722E-3,1.1498348E-1,-9.921043E-2,5.5455793E-2,2.7866354E-2,-2.6099747E-1,2.5799945E-1,-3.7083495E-2,-5.3706054E-2,1.6196969E-1,1.8978525E-2,-4.055111E-1,1.8859297E-2,9.578129E-2,3.613942E-2,-9.1750115E-2,-3.6123075E-2,1.1607792E-1,-1.5527736E-1,-2.904279E-2,-1.8585734E-2,4.995653E-2],"categories":[],"categories_nodes":[],"categories_segments":[],"categories_sizes":[],"default_left":[0,0,0,0,0,0,0,0,0,0,0,0,0,0,0,0,0,0,0,0,0,0,0,0,0,0,0],"id":50,"left_children":[1,-1,3,5,7,-1,-1,9,11,13,15,17,19,-1,21,-1,23,-1,-1,25,-1,-1,-1,-1,-1,-1,-1],"loss_changes":[1.0302778E-1,0E0,1.485719E-1,1.583467E-1,1.2525484E-1,0E0,0E0,2.0110285E-1,2.310228E-1,2.0056202E-1,2.2452399E-1,2.5733173E-2,1.8785046E-1,0E0,3.1827223E-1,0E0,5.613202E-2,0E0,0E0,1.1205468E-1,0E0,0E0,0E0,0E0,0E0,0E0,0E0],"parents":[2147483647,0,0,2,2,3,3,4,4,7,7,8,8,9,9,10,10,11,11,12,12,14,14,16,16,19,19],"right_children":[2,-1,4,6,8,-1,-1,10,12,14,16,18,20,-1,22,-1,24,-1,-1,26,-1,-1,-1,-1,-1,-1,-1],"split_conditions":[-2.3406437E-2,-5.681682E-2,-1.077585E-2,1.0103861E0,1.0142338E0,-2.6312722E-3,1.1498348E-1,1.0027943E0,1.0232658E0,9.649838E-1,2.573904E0,2.0044875E0,9.7987574E-1,-5.3706054E-2,2.2751267E0,1.8978525E-2,1.0090362E0,1.8859297E-2,9.578129E-2,9.672691E-1,-9.1750115E-2,-3.6123075E-2,1.1607792E-1,-1.5527736E-1,-2.904279E-2,-1.8585734E-2,4.995653E-2],"split_indices":[3,0,3,2,1,0,0,1,1,1,0,0,2,0,0,0,1,0,0,2,0,0,0,0,0,0,0],"split_type":[0,0,0,0,0,0,0,0,0,0,0,0,0,0,0,0,0,